in 0.070312 0.086914 0.087891 0.062500 0.069336 -0.108887 -0.081543 -0.154297 0.020752 0.131836 -0.113770 -0.037354 0.069336 0.078125 -0.103027 -0.097656 0.044189 0.102539 -0.060791 -0.036133 -0.045410 0.047363 -0.120605 -0.063965 0.002258 0.037109 -0.002914 0.117676 0.061768 0.063965 0.081055 -0.068848 -0.021362 0.055176 -0.085449 0.068848 -0.127930 -0.033203 0.098633 0.175781 0.110840 -0.034668 -0.047119 -0.008484 0.035889 0.103027 0.026978 -0.028687 -0.005127 0.106445 0.059814 0.094238 0.033691 -0.027100 -0.094238 0.001030 -0.048340 0.034424 0.081055 -0.113281 -0.088867 0.035889 -0.145508 -0.244141 -0.061523 0.052979 0.056885 0.179688 0.061035 0.086914 0.124023 -0.040283 0.022583 0.177734 -0.029663 -0.029663 0.117188 0.031128 -0.096191 0.066406 0.004700 -0.080078 0.062988 -0.020630 -0.054688 -0.135742 -0.063477 0.083496 -0.063965 0.021484 0.077148 -0.037109 -0.033691 -0.183594 -0.072754 0.015869 0.093262 -0.061523 -0.014221 -0.003448 0.011108 -0.158203 -0.017090 0.006195 -0.008728 -0.080566 -0.015259 -0.087891 0.003479 -0.016113 -0.012329 0.097656 -0.139648 -0.085938 -0.026855 0.053955 0.132812 0.112793 0.121094 0.085449 -0.007111 0.044678 -0.145508 -0.003204 -0.117676 -0.065430 0.071289 -0.094238 -0.030273 0.120117 0.080078 -0.094727 -0.162109 -0.077637 0.021240 -0.081543 0.003937 -0.157227 -0.098145 0.039795 0.039307 -0.009094 0.103027 0.067871 -0.042725 0.063477 -0.049072 0.020874 -0.166992 0.093262 0.093750 0.006866 0.053711 0.052490 -0.024414 -0.032471 -0.061523 -0.005554 0.096191 0.037842 0.012207 -0.043945 -0.007477 0.105469 0.020386 0.145508 0.082031 0.005768 0.004578 -0.092773 -0.138672 -0.057373 -0.051514 -0.130859 -0.139648 -0.020508 -0.027100 0.032715 0.104980 -0.002335 -0.022583 0.000504 -0.110840 0.084961 -0.129883 -0.017456 -0.000359 0.107910 0.088867 0.044678 0.025146 0.023804 0.081055 0.023682 -0.109863 0.005371 -0.017700 -0.033936 -0.032959 -0.164062 0.095703 -0.018311 0.005310 -0.034424 -0.044189 -0.066406 -0.017944 -0.029663 -0.007599 -0.051270 -0.054199 0.089355 -0.071777 0.015259 -0.082520 -0.031738 0.035645 -0.021240 -0.059326 -0.013062 0.046875 0.023071 0.020996 -0.078613 -0.008057 0.019531 -0.005554 0.041504 0.027832 0.013611 0.034668 -0.182617 0.120117 0.074219 -0.041016 -0.009949 0.042969 -0.007294 0.123047 0.057617 -0.053467 -0.032227 -0.009094 -0.046631 0.043945 -0.050781 0.068848 0.002991 -0.004181 -0.044189 0.073730 -0.012756 0.067383 0.006287 0.075195 -0.037842 0.004883 0.044678 -0.067383 0.009705 0.004730 0.020508 0.071289 0.170898 0.173828 0.055664 0.091309 -0.037354 0.049805 -0.039307 0.044189 0.062500 0.048584 -0.053223 0.048828 -0.130859 -0.028931 -0.036133 -0.060791 -0.057373 0.123047 -0.082520 -0.011902 0.125000 0.001358 0.063965 -0.106445 -0.143555 -0.042236 0.024048 -0.168945 -0.088867 -0.080566 0.064941 0.061279 -0.047363 -0.058838 -0.047607 0.014465 -0.062500
for -0.011780 -0.047363 0.044678 0.063477 -0.018188 -0.063965 -0.001312 -0.072266 0.064453 0.086426 -0.169922 -0.039795 0.071289 -0.025879 0.018188 0.136719 0.144531 -0.033691 -0.097656 -0.120117 -0.079590 0.062500 -0.066895 0.074219 0.022705 0.033447 -0.180664 0.052002 0.013855 0.092773 0.003510 -0.009094 -0.097168 0.067871 -0.008789 0.044189 -0.133789 -0.099609 0.033203 0.027954 0.155273 -0.017700 0.014282 -0.109863 -0.085449 -0.073242 -0.024658 0.172852 0.061768 0.089355 -0.024292 0.141602 -0.032959 0.027466 -0.155273 0.007874 -0.070801 0.043701 0.006012 -0.055908 -0.147461 0.028442 -0.132812 -0.176758 -0.091309 -0.050781 -0.026001 -0.148438 -0.080566 0.150391 -0.043457 0.079102 0.033203 0.090332 0.022705 -0.062500 0.164062 0.085938 -0.012390 0.196289 -0.062256 0.022461 -0.030151 0.021240 0.003326 -0.055420 -0.073242 0.029785 0.049805 0.017456 0.104492 0.038818 0.084961 -0.248047 0.069336 -0.149414 0.058350 0.095703 -0.033447 0.062988 0.021362 -0.145508 0.053711 -0.090820 -0.025391 0.045410 0.005310 -0.115723 -0.019531 0.121094 0.032227 0.094727 -0.064453 0.022705 0.120605 0.060303 0.120605 0.048828 0.093262 0.066895 0.029297 -0.034180 -0.111328 0.053467 -0.025635 0.017822 0.062256 -0.025879 0.145508 0.062500 0.107910 -0.163086 -0.097656 -0.105957 -0.085449 -0.088867 0.101074 -0.079590 0.008423 0.024048 0.130859 0.051270 0.081543 0.093750 -0.058594 -0.096680 -0.028320 -0.145508 -0.147461 0.145508 -0.017578 0.032959 -0.085449 -0.010986 -0.037109 -0.013672 0.035889 -0.008240 0.050293 -0.094727 0.047852 0.020752 0.030640 0.129883 0.052734 0.018799 -0.017578 0.034912 0.018311 -0.009888 -0.184570 -0.089844 -0.029053 -0.060791 -0.051270 -0.002365 0.066406 -0.082520 -0.040039 0.096191 -0.154297 -0.153320 0.028320 0.013123 0.029907 -0.012146 -0.096680 0.024780 0.193359 0.013000 0.024170 -0.035889 0.098633 -0.096680 -0.200195 -0.013794 0.085938 -0.080078 -0.176758 -0.174805 0.005127 -0.034912 -0.054688 0.093750 -0.093262 -0.011963 -0.000565 0.097656 0.024780 -0.039795 0.009766 0.118164 0.025757 0.123047 0.064453 0.070801 0.029297 -0.049561 -0.078125 0.028931 0.045654 -0.042969 0.025879 -0.051758 0.140625 0.004272 -0.037842 0.027466 0.060059 0.028320 0.028076 -0.036621 0.130859 -0.000097 -0.069336 -0.022095 0.067871 -0.023315 -0.015320 -0.058350 0.061035 0.000645 0.003998 -0.071289 0.091797 0.026245 0.020020 0.035400 -0.057861 -0.029663 0.027344 0.025146 0.060303 0.131836 -0.004364 0.002731 0.059814 0.098633 -0.091797 -0.045898 -0.017456 0.038330 -0.019165 0.046387 0.047852 0.098145 -0.040283 0.094238 -0.034668 -0.042236 0.070312 -0.013672 0.106445 0.016479 0.131836 -0.001694 -0.008484 -0.142578 -0.046631 -0.109863 0.082031 -0.041016 -0.018921 0.087891 -0.002808 0.238281 -0.047119 -0.022949 0.040771 0.029297 -0.022583 0.003723 -0.082520 0.081543 0.007935 0.000477 0.018433 0.071289 -0.034912 0.024170
that -0.015747 -0.028320 0.083496 0.050293 -0.110352 0.031738 -0.014221 -0.089844 0.117676 0.118164 -0.071777 -0.077148 -0.068848 0.077148 -0.138672 0.006500 0.010986 -0.015137 -0.000961 -0.030273 -0.000158 0.038330 -0.024170 -0.045898 0.094727 -0.055176 -0.064941 0.006104 0.000854 0.062012 -0.054443 0.014099 0.022217 -0.044922 0.111328 -0.038574 0.051270 0.025146 0.016968 0.062988 0.137695 0.135742 0.065430 -0.064453 -0.024048 -0.013367 -0.037109 0.004303 -0.015747 0.019043 0.108398 0.044678 -0.044922 -0.095215 0.086914 0.082031 0.006836 -0.131836 0.002731 -0.075684 0.022461 0.171875 -0.048584 0.038330 -0.088379 -0.017212 0.021851 0.133789 0.010681 0.049805 0.038086 -0.005249 0.061279 -0.050049 -0.105957 0.055664 0.154297 0.170898 0.048096 0.126953 0.081543 -0.101562 0.043945 -0.013550 -0.133789 -0.157227 0.024292 0.208984 -0.102051 -0.093750 0.048584 0.075195 0.003525 -0.123535 -0.024170 -0.001320 0.038330 0.007599 0.017700 0.043701 -0.098145 -0.058105 0.014099 0.041016 -0.035400 -0.022949 -0.130859 -0.144531 0.028931 -0.122559 -0.071289 -0.007141 -0.096680 0.058594 0.104004 0.026367 0.007568 0.036133 0.040283 0.052734 -0.204102 -0.033447 -0.029053 0.031738 -0.123535 -0.067383 0.015869 -0.086426 0.012512 -0.062988 -0.120605 0.023438 -0.131836 -0.118164 -0.012146 -0.109863 0.095215 -0.041992 0.018311 0.051758 0.014954 -0.159180 -0.021729 -0.005127 0.035889 -0.003036 -0.078125 -0.051270 -0.007416 0.087402 -0.023926 0.044189 -0.113770 0.021484 -0.003830 -0.043457 -0.104004 -0.185547 -0.044922 0.044922 -0.044434 0.019043 -0.020996 0.013489 0.015259 -0.030396 0.046631 0.102539 -0.013855 0.008240 -0.052734 0.019653 -0.076172 -0.089844 0.043945 0.007935 0.012634 -0.108398 -0.018555 -0.104492 -0.152344 -0.079102 -0.028809 -0.018677 0.097168 -0.008362 -0.035400 0.007538 0.058105 0.082031 0.028809 0.051025 0.003174 -0.018555 0.014954 -0.072754 -0.034180 0.043945 -0.048828 -0.161133 0.025635 0.036621 -0.000154 -0.001259 -0.039795 -0.032227 -0.015747 0.060791 0.097168 -0.015015 -0.033691 -0.015320 0.004669 0.032959 -0.082031 0.106445 0.154297 0.008789 -0.120117 0.061279 0.058594 0.038818 -0.015991 -0.043945 0.120117 -0.075195 0.125000 0.035156 0.072754 0.087402 0.021118 -0.073730 0.034424 -0.094238 0.011597 -0.057129 -0.078613 0.015991 0.075684 0.030518 0.004608 -0.145508 -0.024780 -0.107910 0.068848 0.058105 0.125000 -0.065430 0.005280 0.011841 0.069824 0.126953 0.065430 -0.017334 0.119141 -0.032471 0.144531 0.076660 -0.032227 -0.065918 0.062988 -0.062500 -0.096191 0.106445 -0.039795 0.116211 -0.009705 -0.035400 -0.065430 0.058838 0.162109 0.051270 0.159180 0.095215 0.076172 -0.091797 0.025146 -0.078613 0.089355 -0.058594 -0.040039 0.045898 0.031006 0.039062 0.035645 -0.105957 -0.037109 -0.161133 0.021362 0.001221 -0.011292 -0.015625 -0.033447 -0.020630 -0.019409 0.063965 0.020142 0.006866 0.061035 -0.148438
is 0.007050 -0.073242 0.171875 0.022583 -0.132812 0.198242 0.112793 -0.107910 0.071777 0.020874 -0.123047 -0.059082 0.101074 0.010742 0.143555 0.259766 -0.036377 0.185547 -0.078613 -0.022705 -0.120605 0.177734 0.049561 0.017212 0.079590 -0.045654 -0.188477 0.189453 -0.023193 0.062988 0.097656 -0.019043 -0.079102 0.152344 0.173828 0.101562 -0.163086 0.114746 0.100586 -0.092773 0.109375 0.058838 -0.021606 0.063477 0.041992 -0.008850 0.032227 0.106445 0.064453 -0.118652 0.030518 0.066895 0.122070 -0.083008 0.171875 0.078613 0.095215 -0.007782 0.023193 0.023438 -0.016846 0.155273 -0.109863 -0.176758 -0.116211 0.023438 -0.010620 0.052734 -0.133789 0.079590 0.073730 0.043945 0.115234 -0.020630 0.074707 -0.011536 0.080566 0.041748 0.080078 0.351562 0.096680 -0.212891 0.165039 -0.078125 0.069824 -0.001396 -0.091309 0.129883 0.251953 -0.016113 0.093262 -0.146484 -0.001511 -0.151367 -0.026855 -0.157227 0.026367 0.085938 0.071777 0.077148 -0.039062 0.054443 -0.127930 0.091309 -0.184570 -0.037598 -0.027954 -0.089844 -0.116699 -0.098633 0.048096 -0.162109 -0.108887 0.084961 -0.045654 0.158203 -0.038086 -0.082031 0.203125 0.086426 0.069336 0.032227 -0.160156 0.094727 -0.024658 0.054199 0.027954 0.044922 0.169922 0.072754 -0.036377 -0.010254 -0.017090 -0.107422 -0.000702 -0.073730 0.253906 0.056641 0.035156 -0.008606 0.185547 0.021484 0.263672 -0.023804 -0.099121 -0.041260 -0.069336 -0.113770 0.050049 -0.058838 0.046143 0.087402 0.105469 0.106445 0.027954 0.094727 0.116211 -0.172852 -0.034912 -0.208008 0.059570 0.104004 -0.001793 0.058594 -0.029785 -0.037598 0.048584 -0.063965 0.079590 0.069336 -0.104980 -0.144531 0.043457 -0.068848 -0.035645 -0.011719 0.013672 -0.065918 0.119141 0.031250 -0.046387 -0.001968 0.007355 -0.056641 0.027832 0.082520 -0.013489 0.071777 0.144531 0.127930 0.042236 0.141602 -0.018066 0.021606 -0.091797 0.133789 -0.195312 -0.050293 -0.037842 -0.096191 0.103027 -0.106934 -0.147461 0.099609 -0.230469 0.227539 -0.075195 0.064941 0.091797 0.046875 0.062988 0.069824 0.046143 0.097168 -0.202148 0.199219 0.186523 -0.119629 -0.142578 0.150391 -0.033691 -0.145508 -0.000690 -0.073242 0.133789 0.035645 -0.022949 0.027710 -0.079102 0.207031 -0.083496 -0.049561 0.031494 0.148438 0.055664 -0.044922 -0.079590 0.004761 -0.020752 0.060059 0.004761 0.011169 0.172852 -0.134766 0.030762 -0.079590 0.090332 0.061035 0.077148 -0.050293 -0.092285 -0.267578 0.107910 0.085938 0.062988 0.107910 -0.026733 0.102051 -0.120605 0.052979 0.094727 -0.165039 0.044189 0.072266 0.041260 0.425781 -0.103027 -0.160156 -0.090332 -0.063965 -0.048096 0.144531 0.065430 0.049316 0.054199 0.135742 -0.019287 -0.215820 -0.074219 -0.146484 0.011475 -0.165039 -0.104980 0.003204 0.134766 -0.003967 -0.103516 -0.139648 0.104492 -0.012573 -0.233398 -0.036377 -0.093750 0.182617 0.027100 0.127930 -0.024780 0.011230 0.164062 0.106934
on 0.026733 -0.090820 0.027832 0.204102 0.006226 -0.090332 0.022583 -0.161133 0.132812 0.061035 -0.015747 0.088379 0.013794 0.046387 -0.055908 -0.066895 0.012268 0.136719 0.154297 -0.046143 -0.039307 -0.154297 -0.165039 0.107910 0.033203 -0.051025 0.037109 0.101562 0.110352 0.020508 0.006775 0.001183 -0.012512 -0.125000 0.014832 -0.026855 -0.021484 0.015076 0.138672 0.048584 -0.076660 -0.116699 0.106934 0.041748 0.012817 -0.009460 -0.028931 -0.038574 0.243164 0.009521 0.022095 0.222656 0.009155 -0.045410 -0.035400 0.140625 -0.184570 0.077637 0.041504 -0.084961 -0.099121 0.058350 -0.096680 -0.202148 -0.014038 -0.002365 0.147461 0.200195 0.059570 0.154297 0.134766 0.005280 0.125000 0.085449 -0.027710 -0.058105 0.183594 0.007874 -0.153320 0.124023 -0.080078 -0.143555 0.149414 0.014587 0.107910 -0.201172 -0.150391 0.052490 0.077148 0.091797 -0.038086 0.148438 0.054688 -0.151367 0.014282 -0.104980 0.019043 -0.063477 0.053467 0.034912 0.139648 -0.133789 0.216797 -0.194336 -0.058350 -0.134766 -0.265625 -0.104004 0.035400 -0.215820 0.082520 0.045166 -0.069824 -0.043213 0.026978 -0.090332 0.005493 0.049805 -0.035645 0.059814 -0.149414 -0.022095 -0.033203 0.175781 -0.066406 -0.018311 0.011292 -0.042236 -0.077148 0.017456 -0.104980 -0.104492 -0.047363 -0.029541 -0.061523 -0.050781 -0.025635 -0.095215 -0.081055 -0.101562 0.202148 0.118652 -0.002823 -0.060303 0.022461 0.130859 0.080566 -0.154297 -0.082520 0.160156 0.057861 0.097656 -0.020996 -0.045166 -0.073242 0.004364 -0.090820 0.019165 -0.016602 -0.050293 0.014709 -0.004150 0.034668 0.057373 0.080078 0.006226 0.063965 0.024536 0.031738 -0.125000 -0.078125 -0.024536 -0.072266 -0.086426 -0.077148 0.043457 -0.000188 -0.011414 -0.099121 0.026245 0.053467 0.045410 -0.071289 0.138672 0.041016 0.011169 -0.015320 0.032959 0.182617 0.017456 -0.031982 0.107910 0.032959 -0.035156 -0.217773 0.102051 -0.029297 -0.000946 -0.007141 -0.026367 0.061768 -0.016968 -0.021729 -0.119141 0.009094 0.103027 -0.003006 0.149414 0.105957 -0.040283 -0.018433 0.035889 -0.038086 0.056885 0.015320 0.019775 0.180664 0.008179 -0.151367 0.032227 0.157227 0.050781 -0.028931 0.043945 -0.058594 0.003098 -0.012634 0.161133 0.105957 -0.033936 0.181641 -0.044678 0.034180 -0.037842 -0.008850 -0.036865 0.078613 0.027100 0.046143 0.068848 0.050537 -0.001747 -0.136719 -0.153320 0.098633 -0.161133 0.006622 -0.085938 -0.017578 0.040771 0.029907 0.011414 -0.020264 -0.064453 0.017456 -0.128906 -0.000347 0.042236 0.003296 0.122559 -0.095703 0.092285 0.104980 -0.124512 0.035889 0.145508 -0.105469 0.022949 -0.008362 0.004639 0.219727 -0.049561 0.238281 -0.058350 0.048340 0.060547 -0.037354 -0.177734 0.044922 -0.042236 0.082520 0.110352 -0.109375 0.094238 -0.072266 0.049072 -0.158203 0.078125 0.029541 -0.121094 0.026855 -0.027954 0.030884 0.040527 -0.130859 0.083008 0.015747 -0.116699 -0.029419 -0.070801
with -0.024902 0.021973 -0.035400 0.136719 0.016357 -0.027954 -0.024292 -0.139648 0.057373 0.062256 -0.117676 -0.097168 -0.174805 -0.020630 -0.119141 0.099121 0.060303 0.140625 -0.062988 -0.048828 -0.045410 0.034180 0.011292 -0.045166 0.195312 -0.038330 -0.131836 0.063477 -0.018799 0.132812 0.057129 0.022217 -0.046875 0.090820 -0.175781 0.024658 -0.048584 0.005524 0.054932 0.012024 0.120605 0.029785 -0.159180 0.094727 -0.054443 0.010681 0.113281 -0.040527 0.241211 0.127930 -0.015015 0.044922 -0.127930 -0.091309 0.139648 0.154297 -0.081543 0.016479 0.038086 -0.141602 0.005798 0.068359 -0.169922 -0.104004 -0.096680 0.105957 -0.025513 0.060791 -0.141602 0.178711 0.093750 0.135742 -0.022949 0.059082 0.051025 -0.156250 0.140625 0.244141 0.053467 0.194336 0.042236 -0.124512 -0.007721 -0.038574 0.122070 -0.179688 -0.255859 -0.019775 -0.073730 0.150391 -0.012573 0.069336 -0.014160 -0.045410 -0.080078 -0.097656 0.055908 0.018311 -0.093750 0.165039 0.064941 -0.208008 -0.140625 0.023682 0.020264 0.060059 0.074707 -0.036865 0.026489 -0.002487 0.003723 0.076660 -0.046631 -0.081055 -0.035645 0.199219 0.153320 0.074219 0.039795 0.063477 -0.106445 -0.039062 -0.111328 -0.021606 -0.055420 -0.090332 -0.003937 -0.113770 0.124023 0.122559 0.054688 -0.072754 -0.178711 0.071289 -0.066895 0.030640 -0.007751 0.039062 0.043213 -0.052002 -0.024780 0.204102 -0.067871 0.036377 0.065918 0.031006 0.008484 -0.195312 -0.002518 0.184570 0.143555 0.080566 -0.012268 0.070801 -0.031128 -0.021240 -0.126953 -0.184570 0.024658 0.086914 -0.004822 0.109375 -0.055908 0.196289 0.057129 0.105957 0.078613 -0.094238 -0.088867 -0.078125 -0.189453 0.006287 0.011597 -0.058350 -0.119629 -0.096680 -0.006317 0.074707 -0.079102 0.105469 0.031128 -0.014832 0.068848 0.032959 -0.123047 -0.053711 -0.009155 -0.057129 0.069824 -0.064453 -0.001213 -0.050049 -0.061523 -0.061035 -0.006104 -0.012817 -0.133789 0.007721 -0.142578 -0.181641 0.034912 0.063477 -0.031982 -0.093750 0.030884 -0.067383 -0.047119 -0.048340 0.116699 0.013611 -0.029053 -0.119629 0.038086 0.093262 -0.005371 0.002579 0.043945 0.199219 -0.144531 0.011475 0.002411 0.101074 0.084473 0.009521 -0.053467 -0.019531 -0.039307 -0.055664 0.185547 0.016968 0.093262 -0.048340 0.025391 0.023438 -0.029907 -0.040527 0.008850 0.092285 0.024292 0.024170 -0.161133 0.158203 0.032959 -0.061768 0.076172 0.088867 0.201172 0.070801 -0.079102 0.055908 0.004364 0.014893 0.176758 -0.007660 -0.028809 -0.066895 0.081543 -0.010742 -0.083496 0.105957 0.038818 0.038330 -0.031494 0.049316 0.023804 0.078125 0.012390 -0.032227 0.065430 0.058350 0.137695 -0.031982 -0.056396 -0.071777 0.085449 0.028198 0.002014 -0.070801 0.034668 -0.040039 -0.031250 0.089355 -0.040283 0.045898 0.109863 0.080566 -0.087891 -0.033203 0.049072 0.013977 -0.020752 0.003082 -0.138672 -0.024414 -0.093262 -0.047607 -0.075684 0.010803 -0.018799 -0.068848
the 0.080078 0.104980 0.049805 0.053467 -0.067383 -0.120605 0.035156 -0.118652 0.043945 0.030151 -0.056885 -0.076172 0.012878 0.049805 -0.084961 -0.063477 0.006287 -0.043213 0.020264 0.013306 -0.019531 0.092773 -0.171875 -0.001320 0.065430 0.058350 -0.082520 0.085938 -0.003189 0.058594 -0.034912 -0.012329 -0.048096 -0.003021 0.056396 0.014954 -0.072266 -0.052246 0.096680 0.042969 -0.035400 -0.073242 0.032715 -0.061768 0.007874 0.003555 -0.008789 0.039062 0.038330 0.044434 0.069824 0.012634 -0.004456 -0.033203 -0.042725 0.097656 -0.021606 -0.037842 0.011902 -0.013916 -0.113281 0.093262 -0.039307 -0.116211 0.023315 -0.015991 0.026367 0.107422 -0.004669 0.096191 0.027954 -0.053955 0.085449 -0.036865 -0.020264 -0.085449 0.125000 0.144531 0.026733 0.150391 0.052734 -0.186523 0.081543 -0.010620 -0.037354 -0.073242 -0.075195 0.036133 -0.131836 0.006165 0.050781 0.045166 0.010071 -0.150391 -0.060059 0.057617 -0.006927 0.015869 -0.021362 0.103516 -0.000292 -0.046875 -0.016357 -0.078613 -0.069336 0.016357 -0.031494 -0.013733 -0.036621 -0.088867 -0.048096 -0.013184 -0.071777 0.005890 -0.046143 0.039795 0.100586 -0.049316 0.075684 0.038818 -0.166992 -0.096191 -0.101074 0.029053 -0.057861 -0.019287 -0.042969 -0.083984 -0.019897 0.051514 0.008484 -0.036133 -0.149414 -0.018555 -0.036377 -0.076660 -0.039551 -0.061523 -0.020020 0.041504 0.036865 -0.072266 0.005920 -0.062988 0.007385 -0.015869 0.016113 -0.014526 0.007721 0.101074 -0.005585 0.014282 -0.076172 0.056396 -0.012939 0.030640 -0.024902 -0.098633 0.032471 -0.028076 -0.081055 0.020630 0.016113 -0.041992 -0.034912 -0.037598 0.054932 0.013733 0.026855 -0.058594 -0.071777 -0.120117 -0.022827 -0.164062 -0.003616 -0.059814 0.070801 -0.077148 0.051758 -0.042969 -0.048340 0.030029 -0.065918 -0.031738 -0.048828 -0.034912 0.058838 -0.014648 0.180664 0.056885 0.052490 0.057861 0.116699 0.052002 -0.053467 0.018677 -0.015625 0.005768 -0.073242 -0.116211 0.040527 0.062500 -0.043213 0.010559 0.021729 0.042480 0.032715 0.044189 0.057617 0.026123 -0.018311 -0.026978 -0.006744 0.005096 -0.116211 0.003647 0.057617 -0.059570 -0.088379 0.013550 0.045410 -0.046387 -0.017700 -0.062500 0.034424 -0.024170 0.030884 0.095703 0.079590 0.039307 0.027954 -0.085938 0.081055 0.066406 -0.000420 -0.069336 0.035889 -0.034180 0.044922 -0.007721 -0.007416 -0.047607 0.013977 -0.099609 0.024658 -0.099609 0.114746 0.031738 0.022095 0.072266 0.036865 0.025635 0.013672 -0.027344 0.005920 -0.067383 0.050537 -0.028320 -0.045166 -0.017334 0.021118 0.035156 -0.042969 0.066406 0.122070 0.123535 0.003998 0.045166 -0.018555 0.048340 0.045166 0.086914 0.029419 0.037598 0.034424 -0.073730 -0.040283 -0.146484 -0.024414 -0.019531 0.006592 -0.001816 -0.010925 0.093262 0.065430 0.018433 -0.093262 -0.015747 -0.071289 -0.089355 -0.071289 -0.030151 -0.013000 0.016357 -0.018311 0.014832 0.005005 0.003662 0.047607 -0.068848
at -0.058594 -0.037598 0.072754 0.108887 0.066406 0.048584 0.126953 -0.058105 0.068848 0.090332 -0.199219 -0.040771 0.044678 -0.086914 -0.054443 0.035889 -0.055420 0.113281 0.073730 -0.047607 -0.139648 -0.104980 0.033203 0.009216 -0.047607 -0.029907 -0.088867 0.074219 0.053711 0.011169 0.081543 -0.092285 -0.223633 -0.166016 -0.041992 -0.010254 -0.074219 -0.127930 0.004517 0.089355 -0.029907 -0.172852 -0.071289 -0.076172 -0.010742 0.086914 -0.055176 0.225586 0.045898 0.169922 -0.016846 0.147461 0.011658 -0.016724 -0.111328 0.063965 -0.074219 0.112305 -0.007874 -0.100586 -0.281250 0.016357 -0.098633 -0.279297 -0.084473 -0.054688 0.102051 0.192383 0.078125 0.210938 0.112793 0.000146 0.131836 0.016968 0.106445 -0.023071 -0.073242 0.126953 -0.095703 0.049805 0.063477 -0.007660 0.136719 0.091309 0.004303 -0.045654 0.133789 -0.017212 -0.122070 0.041260 -0.098633 -0.016113 -0.016235 -0.100586 -0.175781 -0.050293 0.146484 0.039062 -0.117676 -0.047607 0.096191 0.003662 0.144531 -0.120605 -0.027222 0.000969 0.071289 -0.083008 -0.058350 -0.083496 0.138672 0.027100 -0.118164 -0.085449 -0.015991 0.008728 0.151367 -0.006256 0.253906 0.056641 -0.001938 0.026001 0.073730 -0.058350 -0.047119 -0.001968 -0.075195 -0.055664 0.028320 0.100098 -0.016602 -0.251953 -0.025391 -0.141602 -0.002777 -0.077637 0.083496 -0.049316 -0.141602 0.199219 0.063477 0.024658 0.002304 -0.086426 -0.046143 0.013550 0.070801 -0.163086 -0.125977 0.057129 -0.034424 0.212891 -0.001602 0.073730 -0.028076 -0.088379 -0.125977 0.014404 -0.015625 0.075684 0.068848 -0.077637 -0.027588 0.103516 0.041260 0.117188 -0.012695 0.041504 -0.030518 -0.066406 -0.068848 -0.066406 0.094727 -0.002609 -0.172852 -0.202148 -0.013855 0.103027 0.085938 0.057129 -0.036377 0.104980 -0.093262 0.065918 -0.038330 -0.062988 -0.002380 0.111328 0.114258 -0.075684 -0.036133 0.002716 -0.106445 0.070312 -0.271484 0.010315 -0.012817 0.070312 -0.011108 -0.073730 0.078613 -0.092285 -0.021606 -0.048828 0.031250 -0.131836 -0.000885 0.199219 -0.111328 0.108398 0.044678 -0.081543 -0.089355 0.031250 -0.135742 0.018066 0.022705 -0.046875 -0.095703 0.110352 0.062012 0.181641 0.090332 -0.158203 0.102539 -0.106934 0.026489 0.020264 0.010376 -0.095215 0.043457 -0.209961 -0.000866 -0.010681 -0.005646 -0.073730 0.074219 0.102539 0.124023 0.154297 0.004456 0.111328 -0.119141 -0.231445 0.024536 0.005951 0.019531 -0.032471 -0.150391 -0.115234 -0.146484 -0.009033 0.028564 -0.132812 0.152344 -0.059326 0.051025 0.113281 -0.115723 0.056152 0.081055 0.016724 0.116211 0.027832 0.147461 0.017212 0.090332 0.076172 0.144531 -0.024536 -0.052002 0.047119 0.072266 0.091797 0.120117 -0.141602 -0.022827 -0.124512 -0.067383 -0.059082 -0.037598 -0.080566 -0.069336 0.052490 0.082031 0.019409 -0.081055 -0.093262 0.068359 -0.021240 -0.032959 0.052734 -0.114258 0.187500 0.002960 -0.002747 -0.047119 -0.107910 -0.086426 -0.031982
not 0.084961 -0.095215 0.119141 0.111816 -0.111328 0.049805 0.114258 -0.098633 0.099609 -0.041504 0.012878 -0.181641 -0.116211 0.023804 -0.164062 0.126953 0.120605 0.009460 0.041504 -0.095215 -0.129883 -0.115234 0.075195 -0.049805 0.065918 -0.029053 -0.089844 0.084473 -0.047852 -0.027100 -0.103027 0.110840 0.014221 -0.098633 0.041260 0.072266 0.109863 0.011353 -0.014832 0.045654 0.140625 0.146484 0.259766 -0.167969 -0.001457 -0.021484 0.018921 0.040039 0.055908 0.038086 0.002029 0.071289 -0.052490 -0.027832 0.111328 0.119141 -0.052490 -0.079102 0.103027 -0.118164 0.036621 0.136719 -0.090332 -0.070312 -0.039062 -0.017456 -0.081543 0.242188 -0.180664 0.095703 0.090332 0.199219 0.047363 -0.055176 -0.222656 -0.074219 0.161133 0.104004 0.113770 0.112793 0.004974 -0.051025 0.039551 0.049072 -0.139648 -0.088867 -0.113281 0.136719 -0.032959 -0.234375 0.109863 -0.021484 -0.176758 -0.030884 0.060303 -0.173828 0.122559 0.106934 -0.085449 0.060059 -0.079102 0.051514 0.025024 0.088379 -0.093262 -0.008179 -0.099121 -0.154297 0.031982 -0.027222 -0.177734 -0.045898 -0.087891 -0.002090 0.133789 -0.088867 0.090820 -0.128906 -0.000523 0.098633 -0.130859 0.027710 0.049072 0.089355 -0.113281 -0.041016 -0.091797 -0.108398 0.040283 -0.253906 -0.029297 -0.106445 -0.076660 -0.074707 -0.133789 -0.211914 0.028931 0.076660 0.055176 0.018921 0.051270 -0.207031 0.196289 -0.091797 -0.026123 0.029297 0.027710 -0.200195 0.103027 0.061523 0.079590 0.116699 -0.041504 -0.055176 0.093262 0.073730 -0.091797 -0.042480 -0.096680 0.059082 0.095703 0.155273 0.090820 0.051758 0.087402 -0.089355 0.095215 0.082031 0.134766 -0.090820 -0.096191 -0.039062 -0.118652 -0.079102 -0.088379 0.003723 0.202148 -0.083496 -0.081543 -0.110840 -0.110840 -0.059326 0.102539 0.053467 0.010986 -0.007812 -0.037842 0.048340 -0.063477 0.205078 -0.015381 -0.021118 0.004364 0.108398 0.123047 -0.026001 -0.003464 -0.012573 -0.020020 -0.116211 0.081055 0.095215 -0.060791 0.202148 -0.031738 0.069336 -0.065430 0.020508 0.029053 -0.051514 -0.059814 0.014282 -0.015320 -0.006195 -0.236328 -0.006897 0.183594 -0.113770 -0.113770 -0.072754 -0.047852 -0.083984 -0.217773 -0.035400 0.125977 -0.081543 0.170898 0.070801 -0.010681 0.099609 0.120117 -0.015869 -0.097168 0.014099 0.105469 -0.092285 -0.003021 -0.164062 0.069824 -0.147461 0.041992 0.007080 0.104980 -0.115234 0.019775 -0.033203 0.009094 0.008240 -0.001518 -0.099609 0.033936 -0.003738 0.277344 0.006439 0.188477 0.043213 0.094727 0.054688 -0.138672 -0.074707 0.037354 -0.064453 -0.251953 0.142578 -0.047363 0.125977 -0.041748 -0.056641 -0.009216 -0.023560 0.188477 0.110352 0.351562 0.077637 -0.098145 -0.053711 -0.035889 -0.166016 0.032471 -0.081055 0.096191 -0.013550 -0.014343 0.129883 0.019165 0.004211 -0.003601 -0.174805 -0.086914 0.073242 -0.066406 0.034424 -0.005707 -0.033203 -0.000938 0.031982 0.063477 -0.108887 0.048828 -0.130859
as -0.031494 0.064453 -0.060547 0.012878 -0.096191 0.072754 0.054932 0.006714 0.114258 0.058594 0.153320 -0.066895 0.064453 0.081543 -0.076172 -0.031982 0.132812 0.037109 0.066895 -0.106934 -0.000141 0.008179 0.017578 -0.022461 0.039062 -0.080078 -0.108887 0.121094 0.069336 0.105957 0.096680 0.057617 -0.008423 -0.087891 -0.010071 0.076660 0.010864 0.013733 0.081543 -0.013123 0.189453 0.028564 0.070312 -0.018188 -0.084961 -0.042969 -0.045654 0.063477 0.145508 0.048340 0.092285 0.046631 -0.101074 0.067383 0.009277 0.035645 -0.114258 0.076660 0.154297 0.147461 -0.172852 0.159180 -0.161133 -0.162109 -0.055664 0.105469 -0.059326 0.041504 -0.075684 0.023560 0.089844 0.065430 0.152344 0.017578 0.016479 -0.137695 0.029907 0.178711 -0.038574 0.047607 0.009338 -0.011658 0.016724 -0.044922 0.025757 0.019409 -0.070801 0.134766 0.013733 0.035156 0.044434 0.064941 -0.085449 -0.032227 0.091797 -0.118164 -0.042725 0.103027 -0.120605 0.081055 0.024170 -0.080566 0.001488 -0.017700 0.006073 0.024536 0.027466 -0.089844 0.060547 0.201172 -0.050781 0.159180 -0.032227 0.007935 0.131836 0.116699 -0.006744 -0.012878 0.093750 0.010437 -0.072754 0.003998 -0.080078 0.041748 -0.024902 0.111328 0.015076 -0.000713 0.081055 0.046631 0.035645 -0.098145 -0.085449 -0.024902 -0.190430 -0.088867 -0.011597 -0.094238 -0.038086 0.033691 0.105957 0.050293 -0.072754 0.015625 0.223633 -0.020874 -0.031982 -0.010498 -0.077637 0.143555 -0.047119 0.120605 -0.020142 0.033447 -0.057617 -0.017212 -0.088379 0.015259 0.043213 -0.071777 0.161133 0.134766 0.013489 0.060059 0.038086 -0.035156 -0.100098 -0.022827 -0.034424 0.069336 -0.127930 0.096191 0.055420 0.001350 0.095703 -0.000423 0.066406 -0.191406 0.120117 -0.028198 -0.017212 -0.223633 -0.130859 -0.059082 0.029419 0.007751 -0.123535 0.084961 0.132812 0.209961 0.101562 0.060791 0.090820 -0.112305 -0.112793 -0.085938 -0.145508 -0.033691 0.068359 -0.171875 0.073730 0.027954 -0.015259 -0.022827 0.020996 -0.111816 0.071289 0.037354 -0.031982 -0.019043 -0.062988 -0.063965 -0.008789 0.103516 -0.063477 0.056885 -0.013489 -0.041748 -0.075195 -0.055420 0.121094 0.033203 0.012451 -0.051758 0.099609 0.077148 0.031982 -0.009888 0.208984 -0.135742 -0.017822 -0.117676 0.122559 -0.061523 0.076172 0.038574 -0.079102 -0.047852 0.046875 -0.033203 0.040771 0.011108 0.093750 -0.027222 -0.132812 -0.010254 -0.014587 -0.113281 -0.019531 0.025879 0.081543 0.086426 0.143555 0.003616 -0.139648 -0.016235 -0.147461 0.092285 -0.001884 -0.135742 0.035156 0.135742 -0.121582 0.055908 -0.003281 0.021851 0.019775 0.166016 -0.004211 -0.020996 0.079590 -0.210938 0.170898 -0.037598 -0.006104 -0.134766 -0.038086 -0.166992 0.005707 0.091797 0.036377 0.126953 0.008911 0.051514 -0.020386 -0.088379 -0.166016 -0.138672 0.013245 0.185547 0.025146 -0.129883 -0.205078 0.060791 -0.111328 0.111816 0.000069 0.038818 0.152344 -0.026855
it 0.084473 -0.000353 0.053223 0.099609 -0.148438 -0.062500 0.056396 -0.064941 0.065918 0.018799 -0.092773 -0.233398 -0.066406 -0.128906 -0.205078 0.022705 0.065918 0.047363 0.135742 -0.139648 0.034424 0.081543 0.091309 -0.132812 0.124023 -0.022705 -0.059082 -0.028564 0.013611 0.039307 -0.067871 0.096191 -0.081055 -0.081055 0.075195 -0.042969 -0.010193 0.004791 0.050781 0.142578 0.084961 -0.038818 0.169922 -0.051514 -0.102051 0.085449 -0.052490 0.058105 0.029663 0.035889 0.156250 0.006561 0.030884 -0.043213 0.048828 0.018677 0.002640 -0.071289 0.007721 -0.002640 0.012878 0.088379 -0.085449 -0.016113 -0.087891 -0.034180 0.001762 0.010315 -0.074707 0.093262 0.088867 -0.020874 0.062988 -0.087891 -0.066895 -0.009644 0.127930 0.137695 0.085938 0.170898 0.052734 -0.166016 0.121582 0.005585 -0.163086 -0.032715 0.059082 0.240234 0.004089 -0.049316 0.001083 0.034668 -0.029297 -0.086914 -0.088867 -0.061523 -0.050781 0.006683 0.031494 0.022827 -0.122070 0.048096 0.028931 0.161133 -0.142578 0.015869 -0.080566 -0.122070 -0.008789 -0.192383 -0.017212 -0.010803 -0.023071 -0.072266 0.064453 0.072754 -0.007141 -0.005554 -0.034668 0.109375 -0.202148 -0.072266 -0.080078 0.137695 -0.202148 -0.026855 -0.047119 -0.041992 0.031006 -0.103516 -0.124512 -0.003189 -0.081543 -0.056641 0.032715 -0.028564 0.061279 -0.021484 -0.039795 0.038086 0.142578 -0.196289 0.113770 -0.112793 0.009644 -0.059082 -0.150391 -0.051270 -0.095215 0.068848 -0.013733 0.035645 -0.227539 0.030518 -0.052490 0.003723 -0.081543 -0.075195 -0.067871 -0.014587 -0.027710 0.129883 0.053223 0.064941 -0.041016 -0.116699 0.050781 -0.053223 0.052490 0.018188 -0.050293 0.091797 -0.148438 -0.030762 -0.052979 -0.008667 0.130859 -0.174805 0.025146 -0.072266 -0.076172 -0.105957 -0.083496 -0.057617 0.056396 -0.068848 0.027466 0.086426 0.137695 0.071777 -0.037109 0.058838 -0.017334 -0.020752 -0.062012 -0.130859 -0.092285 0.109375 0.047119 -0.139648 0.016479 0.046387 -0.043945 0.156250 0.056885 0.010254 -0.076660 -0.009399 0.121582 -0.016357 0.050049 0.137695 -0.059570 0.109863 -0.208008 0.144531 0.109863 0.005127 -0.069824 0.049072 0.058350 0.066406 -0.036133 -0.008423 0.104004 -0.065918 0.068359 0.059570 0.036133 0.114746 -0.003311 -0.041504 0.071289 -0.149414 0.035156 -0.034424 -0.144531 -0.088867 0.122559 -0.017700 0.095215 -0.177734 -0.052490 -0.096191 -0.070801 -0.031982 0.023804 0.013489 -0.000349 0.019165 -0.091797 -0.024414 0.054688 -0.100586 0.158203 0.066406 0.113770 0.101074 -0.060791 -0.094727 0.089355 -0.018799 -0.145508 -0.029663 -0.032959 0.082520 0.053955 -0.090820 -0.127930 0.024048 0.167969 0.139648 0.281250 0.019287 0.054199 -0.098145 -0.062012 -0.097168 -0.109375 0.015991 -0.006317 0.018188 0.073242 0.066895 0.051514 -0.104492 0.028687 -0.040283 0.013672 0.094238 -0.032959 0.147461 -0.157227 0.009705 -0.136719 0.031982 0.118652 0.017090 0.060791 -0.108887
be -0.228516 -0.088379 0.127930 0.150391 -0.073242 0.086426 0.063965 0.096680 0.058350 0.143555 -0.029297 -0.186523 0.011963 0.049561 0.073242 0.126953 0.043213 0.124023 -0.033691 0.005371 0.022339 -0.060547 0.194336 -0.003815 0.133789 -0.004059 -0.205078 -0.057861 0.129883 0.017334 -0.096191 -0.013184 -0.210938 0.155273 0.289062 -0.072754 0.053711 -0.023193 0.096191 0.004791 0.242188 0.141602 0.080566 -0.067871 -0.046143 -0.091309 0.056396 0.189453 0.001534 0.091797 0.108887 0.131836 0.082031 -0.069824 0.068848 0.001244 0.103516 -0.037842 0.045898 0.015625 -0.076660 0.016357 -0.073242 0.090820 -0.086426 0.042480 -0.084473 0.197266 -0.073242 0.167969 0.039795 0.089844 0.201172 -0.050537 0.045654 0.018433 0.191406 0.078125 0.023438 0.213867 0.123047 -0.173828 0.122559 -0.067383 0.065918 0.075684 -0.036621 0.112305 0.105469 0.003967 0.014709 0.020752 0.011475 -0.149414 0.109863 -0.089844 0.063965 0.051270 -0.044434 -0.068848 -0.036133 -0.087402 0.097656 0.114258 -0.216797 -0.104980 -0.128906 -0.161133 -0.010193 -0.009033 0.089355 0.005707 -0.034912 -0.081055 -0.052246 -0.099609 -0.048096 -0.148438 0.233398 0.083984 0.059570 -0.113770 -0.078125 0.123047 -0.158203 0.061035 0.032471 0.001816 0.164062 -0.047852 0.090332 -0.018066 -0.062500 -0.126953 -0.069336 -0.072266 0.000103 -0.093750 -0.044189 0.137695 0.143555 -0.081055 0.025391 0.041748 0.019531 -0.104004 0.032227 -0.097656 -0.099609 -0.048096 -0.191406 0.104980 -0.091309 -0.027344 0.032959 -0.166992 -0.068359 -0.205078 -0.091797 -0.025513 0.101074 0.109375 0.080566 -0.017944 0.059082 -0.077148 -0.041260 0.042480 -0.081055 0.045410 -0.227539 -0.314453 -0.194336 -0.166992 -0.083984 -0.124512 0.018066 -0.102051 0.068359 0.112305 0.025269 -0.103027 -0.059082 0.213867 -0.133789 -0.018188 -0.012695 0.011902 0.125977 0.175781 -0.006927 0.095215 0.018555 -0.056885 -0.113770 -0.114746 -0.140625 -0.102539 0.007141 -0.090820 0.110352 -0.091797 -0.059814 -0.017944 -0.075195 0.003342 -0.108887 -0.023315 0.148438 0.040039 -0.080078 -0.165039 0.101074 0.104492 -0.220703 0.042480 0.114258 -0.167969 -0.120605 -0.045654 -0.042480 -0.214844 -0.063965 -0.157227 0.159180 0.024170 0.042236 0.150391 0.105469 0.002304 0.065430 0.026245 -0.122070 -0.072266 0.226562 0.018921 -0.213867 0.049072 0.091309 -0.009094 0.024170 0.079590 0.138672 -0.058594 -0.079102 -0.049561 -0.055420 -0.014648 -0.143555 0.036133 -0.050781 -0.045410 -0.060303 0.061768 0.136719 0.057617 0.037842 0.126953 -0.032959 -0.112793 0.197266 -0.207031 -0.099609 0.314453 0.078613 0.265625 0.039795 0.083984 0.015564 -0.110352 0.191406 0.097656 0.131836 0.164062 0.036621 0.014526 0.008362 -0.213867 0.059570 -0.048828 0.134766 0.038818 0.065918 -0.037598 0.085449 -0.051025 -0.111816 -0.144531 0.100098 0.203125 -0.109863 0.064941 0.117188 0.045410 0.214844 0.042969 -0.139648 -0.212891 0.188477 -0.145508
from 0.058105 -0.000175 0.076172 0.053223 0.025146 0.020874 -0.069336 -0.132812 -0.069336 0.164062 -0.104980 -0.080078 -0.054199 0.029419 -0.102051 -0.025513 0.142578 0.151367 -0.019165 0.013977 -0.075684 0.094727 -0.128906 -0.075684 -0.007782 -0.134766 0.049072 0.162109 0.118164 -0.031738 0.073242 -0.173828 -0.078613 0.000973 -0.166016 0.112793 -0.118164 -0.108887 -0.153320 0.154297 -0.037842 -0.081055 0.026611 -0.029785 -0.076660 -0.007111 -0.134766 -0.113770 -0.040771 0.047363 -0.043701 0.010071 0.014343 -0.062988 -0.064453 0.184570 -0.138672 0.124023 0.083496 -0.116211 -0.158203 -0.015381 -0.046143 -0.216797 0.116211 -0.016968 0.030762 0.169922 0.065430 0.145508 0.049316 -0.281250 0.100586 -0.038086 -0.049072 0.169922 0.081543 0.025269 -0.049072 -0.158203 -0.015198 -0.025879 0.104492 0.105469 -0.052979 -0.190430 -0.100098 -0.136719 -0.125977 -0.006775 0.036865 0.221680 -0.117676 -0.061768 0.020386 -0.041504 -0.073242 0.016968 0.094238 0.114746 -0.028076 -0.084473 0.032959 -0.062012 0.012756 -0.103027 0.050293 -0.046631 0.087402 -0.098145 -0.060303 0.089355 0.057373 -0.032471 0.019531 0.161133 0.069824 0.151367 0.087891 0.151367 -0.098633 0.025513 -0.095703 0.103027 -0.053711 -0.037354 -0.036865 -0.126953 0.014282 0.093262 -0.053223 -0.100586 0.014099 -0.064453 -0.011841 -0.206055 0.044434 -0.115234 -0.021851 0.033691 -0.020386 0.047119 0.002960 0.041992 0.137695 -0.043945 0.063477 -0.049072 -0.113770 0.046387 0.150391 0.071777 0.081543 0.162109 -0.134766 -0.052490 -0.108398 -0.006500 0.004730 -0.055176 0.015259 0.140625 0.043213 -0.027222 -0.035156 -0.017700 0.041504 0.134766 0.043213 -0.034912 -0.194336 -0.154297 -0.084473 -0.102051 -0.049805 -0.007446 -0.039551 0.040039 -0.032227 0.009460 -0.045166 -0.164062 -0.077637 0.102051 -0.074707 0.007935 -0.103516 0.037842 0.120117 0.027588 0.070312 -0.076660 0.066895 0.016357 -0.250000 0.007111 -0.151367 -0.200195 -0.029053 -0.073730 0.053955 -0.054932 -0.058105 0.036133 -0.081055 0.243164 -0.035156 -0.062500 -0.050537 0.006073 -0.071289 -0.051025 -0.100586 0.030884 0.027466 0.013794 0.023560 0.125000 0.035645 -0.085449 0.005249 -0.036865 0.142578 -0.108398 0.029419 -0.059814 -0.131836 0.007690 0.206055 -0.058350 0.159180 -0.238281 -0.042236 -0.044189 -0.022095 -0.059082 0.021484 -0.059570 -0.027466 0.140625 -0.037109 -0.047363 0.133789 -0.112793 0.090332 0.100098 0.089355 0.021606 0.086426 0.120117 0.159180 -0.032227 0.092285 0.008301 0.031982 0.021484 0.139648 0.215820 -0.031494 -0.050293 -0.040527 0.040283 0.064453 0.070312 0.136719 -0.052002 -0.075195 0.128906 0.125000 -0.092773 0.160156 -0.047607 0.040771 -0.060059 0.166016 -0.159180 -0.091309 -0.051758 -0.016968 0.044434 -0.135742 -0.124023 -0.075195 0.109863 -0.042969 0.115234 -0.145508 -0.092285 -0.046875 -0.025269 -0.296875 0.058594 0.001579 0.015625 -0.009766 0.136719 0.111328 0.010132 0.064453 -0.029663
by -0.115723 -0.031494 0.159180 0.138672 -0.005066 0.028198 -0.033936 -0.115723 0.032471 0.138672 -0.100098 -0.126953 -0.039551 -0.018311 0.000235 -0.080566 0.045166 0.098145 -0.056641 0.060059 0.088867 0.050293 -0.016479 -0.055664 0.213867 0.014282 -0.131836 0.031982 0.031128 0.125977 -0.003479 -0.155273 -0.168945 0.140625 0.160156 -0.037598 -0.094727 -0.039062 0.170898 -0.051270 0.146484 0.096191 -0.026611 0.039062 0.135742 0.052734 -0.041504 -0.052002 0.157227 0.093750 0.005676 0.126953 -0.005310 -0.048096 0.054199 0.166992 0.038574 0.034668 -0.098145 -0.074707 -0.133789 0.026978 -0.104004 -0.024902 -0.077148 -0.023682 -0.001221 0.106445 0.043701 0.196289 -0.022095 -0.079590 0.024902 0.038818 -0.010803 0.226562 0.086914 0.170898 0.050781 0.077148 -0.001305 0.006439 0.041748 0.025269 0.091797 -0.080078 -0.067383 0.040039 -0.035156 -0.070312 -0.094727 0.181641 -0.075684 -0.057129 0.287109 0.114258 -0.146484 -0.016113 -0.005707 -0.043213 0.218750 -0.107910 -0.051514 0.095703 -0.040283 0.115723 -0.076660 0.047852 0.028076 -0.104004 0.064453 0.048584 -0.071289 0.032715 -0.067383 -0.081543 0.043701 0.001099 0.170898 0.198242 -0.123047 0.175781 -0.185547 -0.007935 0.061768 0.033447 0.057129 -0.002197 0.199219 0.065430 -0.002823 0.098633 0.003891 -0.087891 -0.075195 0.025269 -0.061279 -0.055176 -0.126953 -0.006012 0.137695 -0.033447 -0.073730 0.078125 0.041748 -0.059326 0.058838 0.000927 0.086426 0.091797 0.053955 0.041504 0.136719 0.189453 0.084473 -0.146484 -0.058838 -0.166016 0.033447 0.005219 -0.009888 0.083008 0.049561 0.106445 -0.123047 -0.011414 0.010742 -0.074707 -0.031494 0.012390 -0.146484 -0.207031 -0.068848 -0.157227 -0.194336 -0.087891 -0.045410 0.085449 -0.055664 -0.083496 -0.051270 -0.164062 -0.117188 0.112793 -0.060547 0.017822 -0.034180 0.105957 0.083984 0.051758 0.060547 0.012756 -0.010132 0.029419 -0.080566 -0.097656 -0.004791 0.015320 -0.021606 -0.032959 0.125000 -0.035156 -0.078613 -0.015625 -0.012085 0.160156 0.066406 0.059570 0.083496 -0.086914 -0.054443 -0.164062 0.097168 0.101562 0.009583 0.023560 0.083984 -0.041992 -0.040771 0.048340 -0.024658 -0.067871 0.061035 -0.176758 0.035156 0.047119 0.027466 0.140625 0.267578 -0.051270 0.094238 -0.052246 0.031250 0.033691 -0.087402 -0.090820 0.010376 0.111328 -0.087891 0.010132 -0.183594 -0.062500 0.201172 -0.008911 0.023926 0.130859 0.312500 0.091797 -0.104492 0.022095 0.058350 -0.144531 -0.104492 0.098145 0.072266 -0.180664 0.115723 -0.029053 0.086426 -0.090820 0.075195 0.067383 0.015564 0.112793 -0.012024 0.128906 -0.015747 0.138672 0.173828 0.006348 0.073730 0.066895 -0.119141 0.091309 0.017456 -0.088867 -0.055176 -0.118652 0.123047 0.005615 0.034180 0.145508 -0.058350 -0.041992 0.157227 0.069336 -0.142578 -0.039307 0.081543 0.060303 -0.121582 -0.074707 -0.069336 0.035156 -0.032227 0.047607 -0.212891 0.026245 -0.062500 -0.041504
are -0.096680 -0.026367 0.090332 0.032227 -0.245117 0.056152 0.025269 -0.009399 0.054932 0.061279 -0.095215 0.022217 -0.019775 0.221680 -0.042480 0.016602 -0.072754 0.376953 -0.209961 0.118652 -0.203125 -0.138672 -0.011414 0.017578 0.285156 0.114746 -0.156250 0.071289 -0.083496 -0.201172 -0.101074 -0.074219 -0.142578 0.032227 0.192383 0.074707 -0.031494 -0.029663 0.089355 -0.035645 0.322266 0.036133 -0.009399 0.105469 0.115234 -0.144531 0.000397 0.058350 -0.120605 -0.108398 -0.010925 0.184570 -0.138672 -0.034180 0.151367 -0.033203 0.209961 -0.019409 0.018433 0.115234 -0.120605 0.145508 -0.162109 -0.053223 -0.069824 -0.109375 -0.126953 0.249023 -0.205078 0.029175 0.020874 0.144531 0.036621 -0.017944 -0.060059 -0.092773 0.047119 0.010376 0.010864 0.277344 0.044189 -0.159180 0.095215 -0.176758 0.104980 0.074707 -0.251953 -0.039307 0.123047 0.025635 0.005554 0.103516 -0.015259 -0.144531 0.086914 -0.072754 0.104004 0.023071 0.151367 0.058838 0.084961 -0.084961 -0.044922 0.150391 0.005585 -0.129883 0.056885 -0.017822 0.164062 0.019653 0.041260 -0.004059 -0.002747 0.094238 -0.132812 0.126953 0.156250 -0.196289 0.106934 0.040039 0.040283 0.179688 -0.070312 0.018921 0.066406 0.000446 -0.153320 0.050781 0.063477 0.011108 0.204102 -0.206055 0.064453 -0.155273 0.022217 0.013672 0.298828 -0.058594 0.097656 0.009033 0.020752 0.015747 0.326172 0.028442 -0.045410 0.088867 0.120605 -0.125977 -0.059814 -0.026489 -0.177734 0.091309 -0.038086 -0.095215 0.027344 -0.019165 -0.110352 -0.230469 0.002029 0.060303 -0.100586 0.222656 -0.027710 0.033691 0.144531 -0.072754 -0.132812 -0.016235 0.164062 -0.008545 -0.466797 -0.345703 -0.111328 -0.095703 0.037842 -0.137695 -0.180664 0.071289 0.153320 0.068359 -0.122559 -0.069824 0.068848 0.008789 0.023682 -0.069824 -0.036621 0.087891 0.121582 0.144531 0.047363 -0.043457 -0.006714 -0.121582 -0.279297 0.144531 0.054443 -0.209961 -0.089355 -0.070801 0.176758 0.019531 -0.101074 -0.066406 -0.347656 0.100098 -0.070312 -0.214844 -0.015503 0.150391 0.094238 -0.145508 0.110840 0.079102 -0.080566 0.150391 0.145508 -0.113770 -0.259766 -0.067871 -0.096680 -0.227539 -0.194336 -0.179688 0.107422 0.017700 -0.122070 0.053955 -0.125977 0.083984 0.122559 0.015747 -0.085449 0.217773 0.192383 0.032471 -0.078125 0.010132 0.010742 0.041748 0.065918 0.164062 0.045166 0.019531 0.061768 0.124023 0.010681 0.231445 -0.202148 0.076660 -0.062012 -0.079590 0.170898 0.079102 -0.017822 -0.030640 0.050781 0.163086 0.008667 0.054688 0.108398 -0.082520 -0.063477 0.283203 -0.018555 0.416016 -0.261719 0.025146 -0.014648 -0.114746 0.164062 0.357422 0.074707 0.248047 0.096191 0.149414 -0.018677 -0.271484 -0.054199 -0.098633 0.077148 -0.191406 -0.014221 -0.128906 0.054688 0.066406 -0.172852 -0.043213 0.142578 0.099609 0.024170 -0.123047 0.031494 0.039307 0.032227 0.208008 -0.055908 -0.019653 0.213867 0.136719
have -0.139648 -0.034668 -0.053711 0.179688 -0.036865 -0.025757 0.004852 -0.083496 0.008179 0.324219 -0.090820 -0.147461 -0.108398 0.057373 -0.010071 -0.002380 0.207031 0.089844 -0.161133 -0.039307 -0.103027 -0.071289 0.156250 -0.229492 0.127930 0.074219 -0.112305 -0.113770 0.032227 -0.012634 -0.004669 0.074707 -0.114746 0.037842 0.180664 -0.033936 0.133789 -0.187500 -0.055420 0.125977 0.150391 0.187500 -0.000603 -0.048340 -0.045410 -0.131836 -0.016479 0.031982 0.118164 -0.063965 -0.052734 -0.005737 -0.146484 -0.058838 -0.039795 0.054199 0.030151 -0.045166 0.054443 -0.121094 -0.038574 0.154297 -0.018433 0.011108 0.018677 -0.098145 -0.024780 0.152344 -0.070801 0.052002 -0.024414 0.125000 0.002289 0.119629 -0.102539 -0.023804 0.182617 0.188477 -0.052246 0.074707 0.056885 -0.050537 0.083984 0.046875 -0.048340 -0.068848 -0.267578 0.022705 -0.158203 -0.010193 -0.009949 0.125977 -0.058105 -0.133789 -0.020996 -0.109863 0.003754 0.083984 -0.065918 -0.030640 0.166016 -0.240234 0.065430 0.038086 -0.052246 -0.053467 -0.113770 -0.093750 0.176758 -0.068848 -0.202148 0.075684 -0.045166 -0.080566 0.046875 -0.050537 0.099121 -0.084961 0.026367 -0.021118 -0.093262 -0.038818 -0.094727 0.125977 -0.201172 -0.145508 -0.019287 -0.112305 0.021362 -0.077148 0.112305 -0.145508 -0.210938 -0.111816 0.002380 -0.107910 0.123535 -0.020020 -0.050293 -0.010864 -0.044922 -0.042236 0.032471 0.001770 0.026611 0.022705 -0.029053 -0.117188 -0.209961 0.015320 -0.083984 -0.092285 -0.223633 -0.091309 0.070312 0.008667 -0.146484 -0.149414 -0.014221 0.086914 0.053711 0.100586 -0.048096 0.093750 0.088379 -0.154297 -0.095215 -0.166992 -0.001564 -0.095703 -0.177734 -0.042969 -0.257812 -0.077637 -0.020874 -0.183594 -0.084961 -0.093262 0.055176 -0.062012 -0.044678 -0.137695 0.149414 0.099609 0.035645 -0.214844 -0.026001 -0.062256 0.115723 0.120605 0.007690 0.052734 0.028931 -0.028442 -0.040771 -0.117188 0.125977 0.003311 0.033936 -0.183594 0.113770 0.153320 -0.071777 -0.006439 -0.019775 -0.173828 -0.065918 -0.124512 0.088867 0.022217 -0.041016 -0.084473 0.060791 0.098633 -0.131836 0.010132 0.109863 -0.082031 -0.108398 -0.049805 -0.066895 -0.019531 -0.037109 -0.031006 0.039795 -0.009521 0.115723 0.028320 0.032471 -0.038330 0.104492 -0.162109 0.052734 0.062256 0.099609 0.019409 -0.055664 -0.109375 0.086914 -0.154297 -0.093750 0.080078 0.125000 0.000273 0.097656 0.142578 0.070801 0.078125 -0.144531 0.022949 -0.036865 0.091309 0.114258 0.049316 -0.021973 -0.010559 0.038818 0.255859 -0.076660 -0.127930 0.071777 -0.036133 -0.012268 0.216797 0.041748 0.244141 -0.082520 0.142578 0.083496 0.003296 0.215820 0.229492 0.130859 0.078125 -0.088379 -0.019775 0.013245 -0.192383 0.045898 -0.222656 -0.018066 0.049316 0.162109 0.068359 0.050537 0.000614 -0.073730 0.020874 0.037598 0.178711 -0.049072 0.063477 0.080566 0.088867 0.077637 -0.046631 -0.071777 -0.118164 -0.002457 -0.072266
will 0.048828 0.166992 0.168945 0.087402 -0.062256 -0.035645 0.130859 -0.034912 0.039307 0.037109 -0.137695 0.148438 0.098633 -0.031250 0.012634 0.076172 0.049561 0.230469 0.110352 0.012024 -0.200195 -0.041260 0.185547 0.117676 -0.037354 -0.066406 -0.146484 0.058350 -0.052490 0.049072 0.019653 -0.009949 -0.130859 -0.048096 0.118652 0.050781 -0.035400 0.036133 0.054688 -0.238281 0.077148 -0.164062 0.179688 0.037842 0.024170 -0.214844 0.125000 0.067871 0.015381 -0.223633 -0.106445 0.133789 0.041504 0.166992 0.181641 0.020508 -0.007294 -0.022583 0.151367 0.004913 0.006714 0.033203 -0.168945 -0.089844 -0.059570 0.017090 0.033691 0.359375 0.079102 -0.006744 0.088867 0.064941 0.180664 0.060547 -0.049561 -0.159180 0.226562 0.257812 -0.024658 -0.029175 0.120117 -0.212891 0.058594 0.024658 -0.028442 -0.002167 -0.120605 0.051514 0.179688 0.267578 0.120605 -0.250000 0.047119 -0.235352 -0.043213 -0.200195 -0.033936 0.044922 0.025391 0.149414 0.106445 0.006866 -0.076660 0.052734 -0.241211 -0.069336 -0.116699 -0.156250 0.038330 0.002029 -0.083496 -0.106445 -0.038330 -0.033447 0.085938 0.053467 -0.032471 -0.011353 0.118164 0.093262 0.097168 -0.036621 0.002426 -0.006317 -0.029053 -0.170898 -0.095215 0.035156 -0.055664 0.014343 -0.045898 0.099609 -0.095215 -0.038818 -0.104980 -0.150391 0.115723 -0.119141 0.181641 0.117676 -0.017212 -0.121094 0.147461 -0.147461 0.081543 0.074707 0.143555 -0.184570 0.103516 -0.177734 -0.155273 0.193359 0.154297 0.007874 0.101562 0.088867 0.058594 0.033936 -0.170898 -0.100586 0.089355 -0.025513 0.003845 0.043213 0.080566 -0.050049 0.101074 0.151367 0.042236 -0.123047 -0.098145 -0.109863 -0.049316 -0.046387 0.084473 -0.138672 -0.039795 0.149414 0.044678 0.181641 -0.127930 0.098145 -0.064941 0.119629 -0.101074 -0.088867 0.076172 -0.104980 0.382812 0.095215 0.051270 0.120605 -0.016846 -0.155273 -0.035400 0.061768 0.013245 -0.086914 -0.166992 -0.173828 0.103516 0.076660 0.031494 0.054932 -0.193359 0.144531 -0.051270 0.099121 0.269531 0.031494 -0.148438 0.052246 0.052734 0.090332 -0.037109 0.099609 0.225586 -0.185547 -0.192383 -0.002579 0.014648 -0.188477 -0.169922 -0.150391 -0.058838 -0.093262 0.042236 0.109863 -0.098145 -0.020264 0.016968 -0.012756 -0.013367 0.132812 0.153320 0.008911 -0.081543 -0.031738 0.100586 0.173828 0.020142 -0.049072 0.194336 -0.166992 -0.088867 -0.089844 0.013123 -0.097168 0.099609 -0.083984 -0.114746 -0.138672 0.194336 -0.056152 0.086426 0.120117 0.196289 0.146484 -0.164062 0.056396 -0.016602 0.016235 -0.003723 0.167969 0.135742 0.101562 -0.056885 0.052734 -0.009155 0.005341 0.384766 0.079102 0.041016 0.092773 0.157227 0.059570 0.065918 0.053223 -0.063965 0.085938 -0.117676 -0.107910 -0.024292 0.009033 0.097168 -0.137695 0.078125 0.014099 0.324219 0.023438 -0.146484 -0.015198 -0.064941 0.062988 0.166992 0.185547 0.005981 -0.229492 -0.009705 -0.095703
has -0.044922 -0.030396 0.002350 -0.006592 0.087891 0.032959 -0.094238 -0.241211 -0.057373 0.226562 -0.191406 -0.168945 0.082031 -0.063965 0.146484 0.100586 0.136719 0.066895 -0.174805 0.011108 -0.035156 0.265625 0.155273 -0.196289 -0.051270 -0.061768 -0.083984 0.015747 0.043945 0.043457 0.148438 0.131836 -0.097656 0.218750 0.302734 -0.070801 -0.088867 -0.179688 0.003159 -0.030151 0.129883 0.161133 -0.143555 0.000782 0.042480 0.006989 -0.032959 0.073730 0.283203 -0.135742 -0.010498 -0.155273 -0.031982 -0.027466 -0.038574 0.204102 -0.049316 -0.152344 0.011475 -0.144531 -0.003418 0.296875 -0.029785 -0.092285 -0.030273 -0.021484 0.089844 -0.065430 -0.073242 0.059326 0.033447 0.025513 -0.016357 0.240234 0.067871 0.092773 0.173828 0.233398 -0.008240 0.108887 0.132812 -0.044678 0.056641 0.008484 0.027222 -0.197266 -0.287109 0.054443 -0.043457 -0.036865 -0.028809 -0.041748 0.004944 -0.143555 -0.088379 -0.089355 -0.147461 0.003937 0.053955 0.027954 0.187500 -0.103027 -0.014343 0.054688 -0.171875 -0.011414 -0.044678 0.013611 0.007080 -0.156250 -0.140625 -0.105957 -0.162109 -0.131836 0.053467 -0.065918 -0.171875 0.039307 0.281250 0.018555 -0.064453 -0.002991 -0.240234 0.111816 -0.206055 -0.091309 0.177734 -0.022461 0.122070 -0.013428 0.005066 0.026489 -0.247070 -0.209961 -0.083496 -0.018188 0.169922 0.065918 -0.061279 -0.105957 0.057617 0.037109 0.099609 0.114746 -0.061035 0.054688 -0.147461 -0.013855 -0.161133 0.011475 0.063965 -0.108398 -0.000107 -0.020996 -0.021729 0.150391 0.071289 -0.070312 -0.002914 -0.129883 0.195312 0.085938 0.104492 0.197266 -0.083496 -0.041260 -0.040527 -0.257812 0.003189 -0.109863 0.102539 0.141602 -0.129883 -0.026855 0.038086 -0.137695 -0.130859 -0.164062 0.134766 -0.157227 -0.000261 -0.096191 0.170898 0.001244 0.164062 -0.142578 0.002335 -0.044189 0.093262 0.084473 0.052490 0.197266 -0.061768 0.055176 0.010132 -0.027466 -0.118164 0.066406 0.073730 -0.113770 -0.020752 0.000847 0.039795 0.007111 -0.012634 -0.076172 -0.043457 0.032715 0.086426 0.044922 -0.001335 -0.124023 0.002747 0.151367 -0.074707 0.182617 0.192383 -0.029663 -0.005676 0.171875 -0.025757 0.147461 0.091309 0.051514 0.101562 -0.010559 0.018921 0.003433 0.049805 -0.025146 -0.122559 -0.187500 0.078613 0.073730 -0.028076 -0.076172 -0.034668 -0.173828 0.037842 -0.094238 -0.158203 -0.035645 0.283203 -0.108887 0.125000 0.084473 0.124512 -0.024414 0.116211 -0.007446 -0.060547 -0.140625 -0.000443 0.010620 0.027588 0.110352 0.024536 0.179688 -0.118652 -0.024658 0.143555 -0.015015 0.068848 0.112793 0.200195 0.332031 -0.135742 -0.011353 0.146484 0.004303 0.079590 0.151367 0.071289 -0.104492 -0.172852 0.061035 -0.036621 -0.150391 0.026611 -0.333984 -0.072754 0.095703 0.041504 0.106445 0.255859 0.008850 -0.052490 -0.008423 0.155273 0.071777 -0.289062 -0.058594 -0.109863 0.190430 0.069824 0.018311 0.027588 0.012268 -0.088379 -0.015625
an 0.125977 0.190430 0.069824 0.072266 -0.218750 0.027588 0.053955 -0.076660 0.042969 -0.129883 0.051514 -0.104980 -0.114746 0.055664 -0.050293 -0.004242 0.084473 0.009155 -0.092773 -0.027710 0.089355 -0.114258 -0.134766 -0.095215 -0.107422 -0.108887 -0.025635 0.310547 0.173828 0.199219 0.009033 0.029053 -0.098633 -0.100586 -0.211914 -0.119629 -0.065430 0.125000 -0.076172 -0.111816 -0.197266 0.126953 0.027710 0.047852 0.110352 0.047607 0.013306 0.197266 0.119629 0.042969 0.078613 -0.071289 0.219727 0.007721 -0.162109 0.125000 0.104980 -0.035889 -0.037109 -0.117676 -0.292969 0.116699 0.040771 -0.001526 -0.064453 0.240234 0.291016 -0.031982 -0.021606 0.083984 0.070312 0.051758 0.178711 -0.056396 0.094727 -0.012756 0.020508 0.138672 -0.000694 0.267578 0.174805 -0.135742 0.055176 0.149414 0.053955 -0.016113 -0.057129 0.230469 0.090332 -0.050781 -0.032471 -0.020386 -0.161133 -0.231445 0.081055 -0.013184 -0.076172 0.093262 -0.227539 0.058350 -0.077637 -0.197266 -0.181641 0.074219 -0.063965 0.151367 -0.003494 -0.139648 -0.094238 -0.294922 0.097168 0.016846 0.004578 0.052246 0.140625 0.109375 -0.077148 0.112793 0.236328 0.084473 -0.112305 -0.136719 -0.221680 0.066895 -0.045166 0.285156 0.074707 -0.005249 0.175781 0.148438 -0.128906 0.186523 0.010986 0.010986 0.129883 -0.019409 0.125977 -0.054443 -0.053223 0.160156 -0.118652 -0.011292 0.108887 -0.025757 0.008362 0.002151 -0.060059 0.092285 0.037109 0.151367 0.208008 -0.120605 -0.047119 0.127930 0.095215 0.242188 0.020874 -0.294922 -0.100586 -0.159180 -0.068848 0.132812 -0.115723 0.255859 -0.002457 -0.022339 0.142578 -0.179688 0.002304 0.222656 -0.014343 -0.027832 0.146484 -0.273438 0.096680 -0.131836 0.070801 -0.043701 -0.170898 0.121582 -0.014954 -0.053955 -0.087891 -0.013306 -0.133789 0.253906 0.046631 -0.023804 0.198242 -0.099609 -0.048340 0.111328 -0.028931 0.146484 -0.145508 0.054688 -0.110352 -0.011658 -0.255859 -0.086426 -0.144531 0.087891 -0.016113 0.194336 0.092773 0.097168 0.034912 0.151367 0.121094 -0.102539 0.051758 0.167969 0.235352 -0.021362 -0.257812 -0.043701 0.106934 -0.005402 -0.125977 0.153320 0.155273 -0.144531 -0.103027 -0.132812 0.209961 0.240234 -0.001129 -0.150391 0.151367 0.163086 -0.201172 -0.249023 0.255859 -0.010132 -0.062500 -0.216797 0.015625 -0.016479 0.138672 -0.218750 0.095215 -0.152344 -0.025024 -0.004578 0.010376 0.093262 0.205078 0.034912 0.067383 -0.144531 0.159180 -0.033936 0.025635 0.053711 0.164062 0.121094 0.189453 -0.037354 0.094238 0.055664 0.217773 -0.004669 -0.122559 -0.061768 -0.079590 0.208008 0.202148 -0.005829 -0.109863 0.193359 0.079102 0.069336 0.096191 -0.065430 0.118164 0.024658 -0.095215 -0.003677 -0.095703 0.122070 -0.058594 0.188477 0.069824 0.075684 0.032471 -0.009094 -0.045898 -0.102539 -0.209961 -0.186523 0.070312 0.018433 0.047363 0.211914 0.105957 -0.065918 0.019409 0.061279 0.172852 -0.078613
this 0.109375 0.140625 -0.031738 0.166016 -0.071289 0.015869 -0.003113 -0.084961 -0.048584 0.055664 -0.082520 -0.024048 -0.006653 0.036865 -0.050293 -0.029419 0.113770 -0.067871 0.056396 -0.075684 -0.038574 0.097168 -0.044189 -0.122070 0.140625 0.084961 0.096680 0.074707 -0.003998 0.172852 -0.069336 0.088867 0.038086 -0.000614 0.011841 0.001640 -0.208984 -0.082520 0.089844 0.079102 0.123535 -0.018677 0.030396 0.047119 0.065430 -0.012512 0.001526 0.106445 -0.015320 -0.041992 0.167969 0.051758 0.074707 0.082520 0.017212 0.015991 0.027344 -0.036865 0.081055 -0.064453 -0.089844 0.107422 0.011536 -0.136719 0.051514 -0.024292 0.022827 0.123535 0.015320 0.148438 0.024414 -0.062500 0.081543 -0.064941 0.020386 0.051270 0.125000 0.097656 0.058105 0.186523 0.058350 -0.199219 0.020020 -0.046387 -0.121582 -0.121094 -0.024292 0.228516 -0.057129 0.030518 0.118164 -0.057129 -0.125000 -0.219727 -0.061523 -0.118652 0.118164 0.011963 -0.083984 0.048584 -0.050537 -0.075684 0.028198 -0.053711 -0.141602 0.075684 -0.181641 -0.188477 -0.091797 -0.152344 -0.060059 -0.038330 -0.011108 0.055420 0.072266 -0.009888 0.158203 -0.040039 0.132812 0.101562 -0.039307 -0.094727 -0.145508 0.018188 -0.103027 0.024536 -0.018311 -0.031250 -0.037109 0.001266 -0.190430 -0.094238 -0.201172 -0.142578 0.061768 -0.136719 0.061523 0.013306 0.042236 0.157227 0.068848 -0.090820 0.101562 -0.116699 0.026123 -0.022705 -0.043213 -0.018677 -0.031494 -0.056885 0.051758 -0.069336 -0.155273 0.087891 -0.041748 0.072754 0.182617 -0.180664 -0.003937 -0.095215 -0.071777 0.039062 -0.032715 0.085449 0.068359 -0.121094 0.199219 -0.055176 -0.037598 0.106445 -0.030029 -0.082031 -0.009155 -0.123047 -0.014038 -0.071777 0.094238 -0.052002 0.055908 -0.052002 -0.026367 0.058350 -0.116699 0.053711 -0.001663 -0.042480 -0.187500 -0.047363 0.230469 0.173828 0.003433 0.076172 -0.005402 0.012146 0.010071 -0.026001 0.029297 0.138672 -0.007538 -0.089844 0.015564 0.068359 -0.096191 0.193359 -0.100586 0.019775 0.025024 -0.015015 0.104492 0.069336 0.057617 0.147461 0.105957 0.044678 -0.210938 -0.003174 0.155273 -0.054688 -0.091797 -0.018921 -0.049805 -0.018921 -0.145508 -0.049316 0.194336 -0.080078 0.109863 0.040771 0.053223 0.104980 -0.088379 -0.112305 0.166016 0.055176 -0.036377 -0.082031 -0.037842 0.090820 0.115723 0.149414 -0.017700 -0.014893 -0.030640 -0.081055 -0.074707 0.004913 0.100586 0.030151 -0.025391 0.013550 -0.083496 0.007538 0.013611 0.031494 0.009460 0.015259 0.217773 -0.012939 -0.138672 -0.097168 0.104980 0.022949 -0.054443 -0.004761 0.071289 0.139648 0.121582 -0.035645 -0.145508 0.000694 0.140625 0.194336 0.108887 0.054932 0.086426 -0.018066 0.025024 -0.068359 0.036377 -0.065918 -0.039307 0.076660 0.039795 0.152344 0.114258 -0.027710 -0.132812 -0.148438 -0.052734 -0.050049 -0.064941 0.004059 0.010559 0.064453 0.015259 -0.076660 0.003662 0.007660 0.120117 -0.179688
or 0.023438 -0.140625 0.161133 0.217773 -0.100586 0.082031 0.129883 0.045898 0.043457 0.033691 -0.156250 -0.125000 -0.100586 -0.105957 -0.004639 0.042725 0.007690 0.106445 0.074219 -0.115234 -0.141602 -0.117676 -0.156250 -0.084473 -0.054932 0.042480 -0.158203 0.085938 0.061279 0.074219 0.054443 -0.101074 -0.132812 -0.111328 -0.194336 0.025146 -0.043213 -0.044189 -0.062256 -0.062500 0.035645 -0.075195 0.138672 -0.105957 0.099121 0.044189 0.053223 0.061035 0.030640 -0.015747 -0.054688 0.178711 0.035645 0.104004 -0.034424 0.062012 0.064941 -0.051025 0.123535 0.026978 0.001923 0.035645 -0.053467 -0.057617 -0.081055 -0.052490 -0.052246 0.084961 -0.125977 0.057861 0.080078 0.053955 -0.024536 0.088867 -0.176758 -0.195312 0.059570 0.072266 0.051270 0.055420 -0.103516 -0.102051 -0.053467 0.191406 -0.056396 -0.029541 0.048340 0.012756 -0.014404 0.103516 0.034668 0.117188 -0.057861 -0.208008 0.150391 -0.109863 0.239258 0.021729 -0.057373 0.102051 0.096191 -0.111816 -0.045654 0.118652 -0.204102 -0.101562 0.010498 0.009460 0.064453 -0.047363 -0.048340 -0.096680 -0.012756 -0.020264 0.031006 0.123535 0.026245 0.018066 0.126953 0.076660 -0.065430 0.048340 -0.007446 0.070801 -0.018188 0.057617 0.019897 0.109863 0.069824 0.059326 -0.057861 -0.091797 -0.052979 0.143555 0.079102 -0.150391 -0.130859 -0.130859 0.060059 0.067871 0.176758 -0.130859 0.000129 0.096191 0.318359 -0.044922 -0.100098 -0.178711 -0.111328 0.138672 0.156250 -0.085938 -0.074707 -0.030640 -0.099609 -0.046875 -0.101074 0.046387 -0.109375 0.066406 0.100586 0.166016 -0.111816 0.304688 -0.060303 0.019653 0.009827 -0.013000 -0.025269 0.015015 -0.255859 -0.186523 -0.041748 -0.179688 -0.143555 -0.062988 -0.011841 -0.008972 -0.068848 0.009216 -0.014099 -0.029175 -0.116699 0.003540 -0.004517 -0.002090 -0.110352 0.023315 0.173828 0.106445 0.108398 -0.062500 -0.190430 -0.038330 -0.071289 -0.022583 -0.069824 0.022339 0.075684 -0.213867 -0.041016 -0.023926 -0.062988 0.127930 -0.052979 0.035400 -0.026001 -0.100586 0.004272 -0.033691 -0.003754 -0.074707 -0.182617 0.188477 -0.107910 0.100098 0.010193 -0.020264 -0.164062 -0.052246 -0.016846 0.006104 0.023193 -0.150391 0.094238 0.111816 0.125977 0.125977 0.043945 0.070312 0.061768 0.023193 0.062988 -0.005585 0.079590 -0.096680 0.196289 0.040771 0.037842 0.020874 0.071289 0.003418 0.097656 0.035400 0.042480 0.025146 -0.064941 0.182617 -0.082520 -0.110840 0.155273 -0.094238 0.032471 -0.031982 0.037842 -0.110352 0.086426 0.106445 -0.006012 0.034912 -0.084473 0.106934 -0.162109 0.014160 0.030762 0.069824 0.032959 0.097656 0.058105 -0.074707 0.075195 0.131836 0.087891 0.063477 0.003342 -0.071777 -0.097168 -0.098633 -0.033691 0.073242 -0.023926 0.023438 0.091309 0.084473 -0.044922 0.065918 0.053223 0.025391 0.023804 0.006866 -0.074707 0.244141 0.044678 0.057617 0.052002 0.027954 0.003647 -0.156250 -0.002090 0.079590
they 0.064453 0.036133 0.038574 0.094727 -0.187500 -0.067871 -0.018799 -0.026855 -0.056885 0.097168 -0.004303 -0.125000 -0.128906 0.065918 -0.232422 -0.010010 0.042480 0.030884 0.034668 -0.005096 -0.044922 -0.169922 0.045166 -0.127930 0.101074 -0.031738 -0.034180 -0.104004 -0.008606 -0.149414 -0.083008 0.128906 -0.146484 -0.148438 -0.011902 -0.007660 0.096191 -0.050049 0.077148 0.059570 0.129883 -0.030640 0.212891 -0.077148 0.008911 0.022461 0.077637 0.122070 0.019287 0.137695 0.092285 0.112793 -0.047852 0.030884 -0.056396 -0.036377 -0.008423 0.029785 -0.019043 -0.029907 0.042725 0.148438 -0.161133 -0.079590 -0.058350 -0.100586 -0.060547 0.211914 -0.028320 0.010681 -0.013855 0.140625 -0.004395 -0.123047 -0.190430 -0.082520 0.139648 0.167969 0.058594 0.073730 -0.108398 -0.107910 -0.001511 0.046387 -0.153320 -0.095703 -0.068848 0.038086 -0.089844 0.079590 -0.101562 0.050293 -0.118164 -0.131836 0.085938 -0.029053 -0.028320 0.073242 -0.016602 -0.136719 0.054688 -0.166016 -0.025146 0.126953 -0.100586 -0.038330 -0.056396 -0.177734 0.218750 -0.116699 -0.094238 0.034424 -0.054443 0.058105 0.001167 0.006805 0.210938 -0.133789 -0.003189 -0.053223 -0.141602 -0.124023 -0.011230 -0.041748 -0.097656 -0.042969 -0.131836 -0.174805 0.026489 0.019287 -0.056885 -0.170898 -0.177734 -0.114258 -0.167969 -0.052734 0.045410 -0.009583 -0.029175 0.057861 -0.021729 -0.162109 0.154297 -0.084473 0.076660 0.053467 -0.080078 -0.210938 -0.084961 0.032715 0.013184 0.118652 -0.308594 -0.045898 0.032959 0.083496 -0.174805 -0.041748 -0.072266 0.209961 -0.006714 0.143555 -0.081055 0.163086 -0.001236 -0.190430 -0.052490 0.034912 0.097656 -0.058105 -0.255859 -0.108887 -0.090820 -0.062988 0.041016 0.011169 0.136719 -0.000977 -0.060303 0.019287 -0.076172 0.061523 0.087891 -0.076660 0.110840 -0.219727 -0.089355 0.128906 0.153320 0.054199 0.021973 0.059326 -0.014160 -0.020752 -0.005707 -0.013000 -0.001106 0.051758 -0.103516 -0.121582 0.083008 0.017944 0.078125 -0.039795 0.103027 0.066895 -0.053467 -0.083008 0.037598 -0.041748 0.062500 -0.019531 -0.040283 0.052246 -0.184570 -0.093750 0.224609 0.011414 -0.172852 0.022461 -0.094238 -0.025391 -0.048584 -0.105957 0.064941 -0.064941 0.159180 0.078125 -0.104980 -0.066895 0.038086 -0.116211 0.060059 0.069824 0.186523 -0.090332 -0.076660 -0.046631 0.126953 -0.100098 -0.079590 0.009705 0.004211 -0.031128 -0.005646 -0.003128 0.028809 0.169922 -0.062500 0.029053 0.093750 -0.055908 0.063477 -0.033691 -0.043945 -0.046143 0.026855 -0.015991 0.021729 -0.121582 -0.009888 -0.057861 -0.214844 0.201172 0.061523 0.110352 -0.125977 0.085449 0.004456 0.061768 0.192383 0.211914 0.175781 0.351562 0.006561 -0.004120 -0.045166 -0.120117 -0.109863 0.016602 0.023926 -0.120605 0.116211 0.010437 -0.078125 -0.046631 0.080078 0.016357 0.017944 0.100586 -0.011475 0.012451 -0.118652 -0.066406 0.020386 0.060547 -0.053223 -0.163086 0.128906 -0.060303
but -0.047607 0.081543 0.045654 0.091797 -0.014709 0.111328 0.065430 -0.096680 0.138672 0.143555 -0.078613 -0.163086 -0.091797 -0.071289 -0.080566 0.088379 0.217773 0.099609 0.011902 -0.135742 -0.057861 0.009033 0.175781 -0.011719 0.049072 -0.105469 -0.153320 0.061768 0.086426 0.022583 0.000016 0.063965 0.023315 -0.014587 0.015137 0.052979 -0.013428 0.007996 0.026367 0.029907 0.161133 0.056885 0.118164 -0.031250 -0.007599 0.066406 -0.010803 -0.006531 0.113281 0.092285 0.042969 -0.006104 0.028076 -0.087891 0.034668 0.088379 0.008362 0.013000 0.037109 -0.051270 -0.008606 0.047852 -0.129883 -0.161133 -0.081055 -0.009705 0.051270 0.096191 -0.071289 0.056396 -0.007874 0.138672 -0.025269 0.072266 -0.161133 -0.029175 0.105469 0.022705 0.062988 0.004181 0.012817 0.040771 0.036621 0.068848 -0.082031 -0.116211 -0.099121 0.165039 -0.134766 -0.056396 0.027344 0.044678 -0.015198 -0.094727 0.040039 -0.095215 -0.061523 0.016724 -0.162109 0.046143 -0.076172 -0.031982 0.104980 0.011230 0.046143 -0.090820 -0.051758 -0.105469 0.062988 -0.064941 0.022461 0.061279 0.015503 0.032959 0.069824 -0.021606 0.009460 0.055664 0.023193 0.125000 -0.196289 0.125977 -0.015564 0.088867 -0.090820 -0.006470 0.000202 -0.071777 -0.065430 -0.081055 0.036377 -0.157227 0.015747 -0.062256 -0.057861 -0.139648 -0.074219 -0.010925 -0.046631 -0.051270 -0.000999 -0.071777 0.033691 -0.016357 0.045898 0.052734 -0.104492 -0.141602 -0.209961 0.116211 -0.024414 0.062012 -0.022583 0.026978 -0.011414 -0.042480 -0.002029 -0.055664 -0.044189 0.041016 0.091309 0.082520 0.086914 0.079590 0.029175 -0.090332 -0.072266 0.103516 -0.029663 -0.064453 -0.175781 0.026611 -0.066406 -0.014221 -0.065430 0.039795 0.003052 -0.120605 0.019653 -0.074219 -0.050049 -0.099609 0.045898 0.165039 0.002167 -0.037598 -0.076172 0.027344 0.018799 0.006897 0.016846 -0.092285 -0.013855 -0.050293 -0.097168 -0.030640 -0.053955 -0.030884 -0.077637 -0.195312 0.061523 -0.104980 -0.018066 0.045410 0.067383 -0.086426 -0.098633 -0.028442 0.027100 -0.028809 -0.018433 0.066406 -0.034180 0.098633 -0.147461 0.018799 0.136719 -0.012329 -0.058838 0.012939 0.089355 0.072266 0.070312 -0.062988 0.154297 -0.045898 0.111816 -0.048584 0.092773 0.051270 0.032471 -0.032959 -0.024170 0.006104 0.100586 0.002869 -0.107422 -0.048584 0.120605 -0.001869 0.085449 -0.041260 0.030273 -0.056152 0.048584 -0.032227 0.022705 -0.018555 0.013794 0.074219 0.088867 0.046631 0.127930 0.080078 0.109375 -0.015137 0.063965 0.107910 -0.079102 -0.040527 -0.054688 0.040283 -0.139648 0.097168 -0.025879 0.103516 -0.028931 -0.014343 0.004456 -0.014832 0.164062 0.018677 0.175781 -0.015198 -0.052246 -0.094238 0.077148 -0.202148 -0.057861 -0.024780 -0.005219 -0.029175 0.108887 0.072754 0.085449 -0.088867 -0.000088 -0.140625 -0.063477 0.107910 -0.114746 0.041504 -0.041992 0.092285 -0.000713 0.075195 0.049316 -0.055664 0.104980 -0.108398
more 0.063965 -0.255859 -0.084473 0.151367 -0.081543 0.038818 -0.036377 -0.117188 0.041992 0.001595 -0.001846 -0.074219 0.025391 0.067383 0.040527 -0.018677 -0.166016 0.086914 -0.103516 0.119141 0.016968 -0.116699 0.047363 -0.082520 -0.300781 0.056152 -0.119629 0.016357 0.134766 0.114746 0.019409 0.140625 -0.203125 -0.122559 0.043945 -0.110352 0.058350 -0.033203 0.137695 0.251953 0.168945 -0.239258 -0.133789 0.113281 -0.043701 0.085449 -0.004486 0.189453 0.017822 -0.033691 0.285156 0.007568 -0.071777 -0.193359 0.017700 -0.023438 -0.053711 -0.103027 0.008972 -0.172852 -0.101562 -0.091797 -0.125977 -0.039307 -0.081055 0.053467 -0.054199 0.104004 -0.015503 0.009216 0.024170 0.012451 0.087402 -0.057373 -0.029053 -0.126953 0.152344 0.103027 0.014038 -0.060303 -0.026123 -0.064453 -0.034668 0.001579 -0.332031 -0.117188 -0.055908 0.072754 0.220703 0.025269 0.216797 0.034180 -0.204102 -0.127930 -0.069824 -0.237305 0.063965 0.129883 -0.022095 0.092285 0.017822 -0.112793 -0.066895 0.152344 -0.205078 -0.026855 -0.070312 -0.160156 -0.003540 -0.017822 0.195312 0.143555 0.071289 0.049072 0.133789 0.071777 0.018555 -0.038818 0.189453 0.216797 -0.133789 0.191406 0.001541 0.087402 -0.070312 -0.055176 0.077637 -0.032471 -0.075684 0.081543 0.019897 -0.094238 -0.030762 -0.049072 0.026733 -0.043701 0.167969 -0.146484 -0.021729 0.042725 0.090332 -0.236328 0.040527 -0.025513 0.189453 -0.052002 -0.140625 -0.050293 -0.209961 0.048340 -0.112305 -0.150391 -0.261719 0.014526 -0.101562 0.009155 -0.106445 0.031738 -0.153320 0.085938 0.135742 0.147461 -0.083984 0.086426 0.008728 0.022949 0.005554 0.081055 0.123535 0.027222 -0.211914 0.053955 -0.037842 -0.076660 -0.005676 -0.112305 -0.241211 -0.005188 -0.055908 -0.131836 -0.196289 -0.016602 0.046631 -0.042480 -0.097168 -0.038330 -0.008240 -0.055908 0.038574 0.001595 0.037109 -0.206055 -0.126953 -0.167969 -0.055420 -0.107910 -0.032959 0.112793 0.008972 -0.112793 -0.204102 0.182617 -0.137695 0.156250 0.029785 -0.104004 -0.029297 -0.120605 -0.050049 0.145508 0.102539 0.086426 0.111328 0.207031 0.047607 0.097656 -0.015015 0.195312 -0.191406 0.118164 0.042236 0.020874 -0.030762 -0.058838 0.279297 -0.113770 0.019287 0.080078 0.001091 0.010071 0.007935 -0.041260 0.216797 0.005798 -0.077148 -0.073242 -0.151367 -0.296875 0.072266 -0.031128 0.078125 0.055420 0.011658 -0.135742 0.095215 0.150391 0.013123 0.226562 -0.104004 0.057861 0.121094 0.039551 -0.068359 0.033447 0.011536 0.033936 0.000213 0.062500 -0.135742 0.054688 -0.044434 0.077148 -0.207031 -0.002335 -0.087402 0.066406 -0.031738 -0.008606 -0.170898 0.099609 0.149414 0.059326 0.191406 0.028198 0.146484 -0.060059 -0.221680 0.035645 -0.005920 0.150391 0.094238 0.177734 0.019653 -0.045898 -0.013611 0.119629 -0.111328 -0.113770 0.128906 0.162109 0.017578 0.095215 0.039307 0.169922 -0.106445 -0.049072 0.123047 0.027466 0.064941 0.062012
up 0.120117 -0.020142 0.207031 0.145508 -0.216797 -0.094238 0.061768 -0.090332 -0.058838 0.162109 0.004974 -0.124512 0.069824 -0.106934 -0.088867 -0.134766 0.026733 0.111816 -0.072266 -0.178711 0.031006 0.105957 0.016479 0.009216 0.164062 0.024902 -0.102539 -0.081055 0.004639 0.055908 -0.000633 -0.007141 -0.092285 -0.234375 -0.113770 0.064453 -0.207031 -0.105469 0.031250 0.218750 0.248047 -0.271484 0.060303 -0.147461 -0.160156 -0.010864 -0.019287 0.119629 0.130859 -0.047607 0.137695 -0.139648 -0.073242 -0.028564 -0.196289 -0.088379 -0.030273 0.023560 0.045166 -0.189453 -0.159180 0.123047 0.007629 -0.283203 -0.212891 0.065430 -0.173828 0.079590 0.101562 0.246094 0.179688 0.110840 0.242188 0.296875 -0.193359 -0.005371 0.020142 0.166992 -0.102051 -0.049561 0.102539 -0.102539 -0.114746 0.043213 0.151367 -0.053955 -0.186523 0.061035 -0.000809 -0.022095 0.102051 0.091797 -0.063477 -0.312500 -0.073730 0.079102 0.021729 -0.036865 -0.156250 -0.181641 -0.224609 -0.202148 -0.016724 0.048828 -0.107422 -0.033936 0.005402 -0.036865 -0.073730 0.098633 0.024658 0.158203 0.048340 -0.008179 0.083008 -0.048828 0.083496 0.259766 0.000025 0.079102 -0.093262 -0.101562 -0.109863 0.041748 0.037598 0.047607 -0.143555 0.072754 0.005798 0.058838 -0.220703 -0.002472 0.123535 -0.063477 0.106934 0.198242 0.037598 -0.073730 -0.203125 0.024170 0.014404 0.028687 -0.052002 0.165039 -0.198242 0.006256 0.033936 -0.104980 0.026489 0.163086 0.067871 0.021484 -0.132812 0.032227 0.045654 0.168945 -0.255859 -0.160156 -0.010742 0.126953 0.008850 0.161133 -0.096680 0.094238 0.061035 -0.145508 0.030640 -0.136719 0.044434 -0.269531 -0.275391 -0.046143 -0.065918 -0.024902 -0.231445 -0.046875 0.033936 -0.016479 -0.052979 0.086914 -0.004974 -0.036133 0.133789 0.122559 -0.155273 -0.046875 -0.084473 0.118164 0.210938 -0.049805 0.108887 0.033447 0.108887 -0.035645 -0.064453 -0.084961 0.033203 0.000759 -0.214844 -0.185547 0.131836 0.137695 0.083496 -0.107422 0.132812 0.115234 -0.131836 -0.009033 0.184570 0.065430 -0.024658 0.009888 -0.054932 0.213867 0.023193 0.186523 -0.031250 0.069824 -0.045654 0.058105 -0.118652 0.160156 0.016357 -0.095703 -0.124512 -0.079102 -0.059082 0.178711 0.048096 0.055176 0.023926 -0.111816 -0.061523 -0.136719 -0.092773 0.041260 0.063965 0.093750 0.060547 0.162109 -0.111328 0.022705 -0.114258 0.088379 -0.077148 -0.082031 0.083008 0.136719 0.001839 -0.083008 -0.132812 -0.054932 -0.072754 0.166992 -0.021606 0.020386 0.163086 0.000151 0.019165 -0.073730 -0.062988 0.091797 -0.225586 -0.086914 0.019165 0.129883 -0.119141 0.011597 -0.055908 0.032959 -0.057373 0.034424 0.134766 -0.031250 0.055664 -0.166992 0.089355 -0.237305 0.018677 0.061279 0.120117 -0.034424 -0.126953 -0.087402 0.065918 0.083008 -0.080566 0.046875 0.047363 -0.012390 0.345703 0.081055 -0.249023 0.075195 -0.083496 -0.000858 -0.121582 0.229492 -0.294922 0.011902
its 0.011597 0.216797 0.147461 0.101074 -0.048584 -0.130859 0.055420 -0.026001 -0.084961 -0.043457 -0.178711 -0.024536 0.128906 0.033447 -0.224609 -0.072266 0.061279 -0.001282 0.206055 0.014648 -0.062988 0.020630 -0.139648 -0.043945 0.056396 -0.044678 0.017456 0.136719 0.099121 -0.117676 0.184570 -0.106445 -0.233398 -0.018921 0.086426 -0.023071 -0.110352 -0.084473 0.186523 -0.022949 0.026001 -0.052979 0.056885 0.157227 0.032471 0.001122 -0.125000 0.158203 0.137695 0.147461 0.310547 0.071289 0.057373 0.052979 -0.028931 0.084961 -0.179688 -0.164062 0.208008 0.157227 0.001572 0.208008 0.018066 -0.062256 -0.007599 -0.106934 0.165039 0.030884 -0.074707 0.182617 0.037598 0.016235 0.023193 -0.005402 0.127930 -0.044922 0.168945 -0.005280 0.155273 0.101074 -0.084961 -0.427734 -0.041748 0.050049 -0.192383 0.008911 -0.124512 -0.008545 -0.126953 0.137695 -0.062988 -0.106445 0.099609 -0.039307 -0.044922 0.128906 -0.184570 -0.091797 0.056152 0.182617 0.140625 -0.008362 -0.105957 0.051514 -0.049316 -0.112793 0.004639 0.175781 -0.105469 -0.291016 -0.199219 -0.059570 -0.117188 0.004669 0.013062 0.149414 -0.110352 0.109863 0.198242 -0.081543 -0.071777 -0.133789 -0.090332 0.088379 -0.063477 0.085938 -0.075684 -0.131836 -0.017822 -0.027344 -0.036133 0.101562 -0.045654 -0.053467 0.024902 0.028809 0.007996 -0.067871 -0.126953 -0.044189 0.152344 -0.148438 -0.010925 0.040039 0.097168 -0.080078 0.035645 0.069336 -0.046143 0.190430 -0.034180 -0.133789 -0.014526 -0.117188 -0.156250 -0.135742 0.035645 0.125977 -0.000058 0.040771 0.074219 -0.001198 0.056641 0.057373 0.003555 -0.045410 0.054199 -0.109375 0.058105 -0.162109 -0.062988 -0.108398 -0.082520 -0.059570 0.054443 -0.117188 0.072266 -0.085938 -0.007721 -0.145508 -0.132812 0.050049 -0.080078 -0.203125 -0.148438 0.008606 -0.009949 -0.008423 0.161133 -0.018677 -0.081055 -0.028687 -0.087402 0.013550 -0.300781 -0.085938 -0.157227 0.012268 0.144531 -0.229492 -0.092285 -0.099121 0.098633 0.090332 0.070801 0.145508 0.021729 0.086914 -0.010010 0.024170 0.043945 0.120117 -0.073730 0.213867 -0.066895 0.081055 0.177734 -0.025269 -0.217773 0.190430 0.002579 0.203125 0.040771 0.052979 0.063965 -0.116699 -0.245117 0.069824 0.197266 0.011902 -0.118652 -0.167969 0.124023 0.125977 -0.022217 0.048096 -0.036621 -0.076172 -0.046875 -0.030029 -0.022583 -0.237305 -0.002991 -0.105469 0.080566 -0.180664 0.058838 0.036865 -0.097168 0.132812 -0.049805 -0.130859 -0.176758 -0.160156 -0.017944 -0.040771 0.208008 -0.107422 -0.029419 0.224609 0.105469 0.026978 -0.079590 0.141602 0.199219 0.159180 -0.099121 -0.014282 -0.048340 -0.076660 -0.007324 0.133789 0.022461 -0.127930 0.003128 -0.154297 -0.083984 -0.120605 -0.102051 -0.045166 -0.153320 0.018799 0.079590 0.145508 0.042480 0.055664 -0.011536 0.098145 0.003738 -0.101562 0.000954 0.032227 -0.209961 0.034668 -0.109375 -0.092285 0.110840 0.143555 0.001968 0.002548
one 0.045654 -0.145508 0.156250 0.166016 0.109863 0.007507 0.073730 -0.031006 0.157227 0.099609 0.052002 -0.148438 0.064453 0.118164 -0.026489 0.090332 0.009644 -0.123535 -0.028564 0.007233 -0.064453 0.081055 -0.087402 -0.040771 0.018799 0.082520 -0.079590 0.079102 0.011047 0.083496 0.001846 0.076172 0.048340 0.010010 0.009094 0.007751 0.024536 -0.030396 0.045898 -0.026611 0.102539 -0.013916 0.017456 0.063477 0.060059 0.039551 0.098633 0.011292 -0.086914 -0.025635 -0.050293 0.050293 0.014526 0.002243 -0.052979 -0.008667 0.030518 0.012756 0.056885 0.078613 0.030518 0.096680 0.003860 -0.206055 -0.075684 -0.008606 -0.064453 0.008484 -0.058838 0.128906 0.014038 0.087402 0.064453 -0.010559 -0.048584 -0.031494 -0.023193 0.134766 0.068848 0.085938 0.094727 -0.163086 0.146484 -0.089355 -0.117188 -0.088867 -0.022827 -0.025757 -0.046143 -0.070801 0.075684 0.134766 -0.057617 -0.057617 -0.177734 -0.059326 0.117188 0.041992 -0.135742 0.047852 -0.063965 -0.027100 0.021118 -0.008972 -0.012207 -0.011658 0.110840 0.000565 0.000315 -0.092285 -0.099609 -0.112793 -0.029663 0.032227 0.163086 0.060059 0.065430 -0.047852 0.185547 0.027344 -0.227539 -0.017456 -0.121582 0.046387 -0.065430 -0.127930 0.062988 -0.047852 0.046631 0.126953 -0.031128 -0.168945 -0.018921 -0.010071 0.101562 -0.142578 -0.045166 -0.090332 -0.022949 0.085449 0.116211 -0.174805 0.100586 0.024414 0.253906 0.116211 -0.037842 -0.023438 -0.085449 -0.040039 -0.064453 -0.013855 -0.128906 0.041504 -0.084473 0.040771 -0.086426 -0.156250 -0.004333 -0.017090 -0.182617 -0.018188 0.063477 -0.005402 -0.023193 -0.006622 0.079102 -0.069336 -0.132812 -0.060059 -0.183594 -0.025757 -0.008423 -0.277344 -0.031250 -0.097168 0.015381 -0.082031 -0.025269 -0.000835 0.041992 -0.086426 -0.016846 0.083008 -0.067383 0.071777 -0.004883 0.022095 0.072754 0.003250 0.025757 -0.015137 0.049316 -0.074707 -0.079590 -0.010498 -0.034180 0.060547 -0.168945 -0.206055 0.047119 0.109863 0.034180 0.078125 -0.114258 -0.049072 -0.102539 -0.040771 0.059814 -0.042480 0.093262 0.127930 -0.071289 0.018677 -0.032715 0.085449 -0.005096 -0.045898 -0.143555 0.067871 0.029175 0.050537 0.003937 -0.061768 0.129883 -0.018433 0.135742 0.087891 0.061279 0.018311 -0.042236 0.011780 0.062012 0.092285 0.101562 0.004730 0.020752 -0.100586 -0.039795 0.020752 0.044434 -0.020386 -0.044922 -0.206055 0.123047 0.001366 0.015625 -0.046631 0.070801 -0.046143 -0.067383 -0.076660 0.031494 0.005005 0.002045 0.072754 0.033936 0.047363 -0.026123 -0.150391 -0.035156 -0.018677 -0.091797 -0.035889 0.077148 0.095215 0.065918 0.106934 -0.188477 0.050049 0.066406 -0.005951 -0.033203 0.008850 0.131836 -0.085938 -0.197266 -0.126953 -0.017700 -0.125000 -0.043701 0.021118 0.031494 0.095215 -0.017944 -0.083496 -0.136719 -0.075195 -0.014282 0.073730 -0.028931 -0.013000 -0.060303 -0.032715 -0.103516 0.044678 -0.095215 -0.015869 0.006714 -0.001884
would 0.089355 0.129883 0.212891 0.177734 -0.113281 -0.094727 0.091797 -0.029663 0.027710 0.093262 -0.068848 -0.101074 -0.031250 -0.056641 0.017090 0.110840 0.082520 0.115234 0.052979 0.016357 -0.072266 -0.009216 0.127930 -0.095703 0.021240 -0.096680 -0.228516 0.024414 -0.122070 0.139648 0.022461 0.022461 -0.054932 0.028564 0.029297 0.070801 0.164062 0.049072 -0.064941 0.011108 0.070312 -0.043457 0.246094 -0.149414 -0.095215 -0.039795 0.124023 0.051514 0.062988 -0.178711 -0.084961 -0.058105 0.129883 0.076660 0.145508 0.054688 -0.005432 0.041504 0.062988 0.001450 0.028320 -0.045410 -0.113281 -0.081055 -0.085938 0.010193 -0.023682 0.212891 0.060303 -0.011841 0.010742 0.081055 0.173828 0.102539 -0.243164 -0.174805 0.175781 0.236328 0.150391 -0.031494 0.119141 -0.070312 -0.028320 0.139648 -0.090332 0.041748 0.065430 0.205078 0.099609 0.108398 0.176758 -0.054688 -0.020630 -0.202148 0.056396 -0.115723 -0.036377 0.154297 -0.044189 0.004547 0.041992 0.028564 -0.192383 0.036133 -0.100098 0.103516 -0.045166 -0.240234 -0.009644 -0.094727 -0.149414 -0.079590 -0.027954 0.048340 0.203125 -0.051270 0.042236 0.044434 0.100098 0.043213 0.021606 0.092773 -0.043457 0.036865 -0.143555 -0.146484 0.132812 -0.089355 -0.001083 -0.117676 -0.115723 0.030273 -0.157227 -0.027466 -0.058105 -0.142578 0.042969 -0.086426 0.049805 0.073242 -0.001945 -0.206055 0.058105 -0.074219 0.197266 0.079102 -0.176758 -0.231445 -0.086914 -0.012817 -0.059082 0.078613 -0.072754 -0.010315 0.122070 0.150391 -0.017456 0.047119 -0.097656 0.011841 0.063477 -0.103516 0.111816 0.131836 -0.034180 -0.082520 0.081543 0.095215 0.098145 -0.015381 0.039795 -0.048340 -0.149414 -0.149414 0.059570 -0.092773 0.138672 0.032715 -0.043945 0.177734 -0.133789 0.083984 -0.015991 0.115234 0.153320 -0.114746 0.047363 0.005127 0.281250 0.105469 0.013916 0.008911 0.005463 0.043457 0.095703 0.061768 -0.003860 0.018066 -0.043213 -0.283203 0.062500 0.157227 0.071777 0.029663 -0.034912 0.186523 -0.129883 0.007629 0.231445 -0.056641 -0.094238 -0.012512 0.127930 0.107422 -0.092773 -0.033691 0.267578 -0.068848 -0.185547 0.012939 0.066895 -0.027344 -0.100586 -0.125000 0.053711 -0.180664 0.192383 0.150391 -0.050537 0.096191 0.103516 -0.018555 0.044434 -0.004639 0.156250 -0.098145 -0.028564 -0.113770 0.213867 -0.117676 0.009705 -0.107910 0.220703 -0.095215 0.008057 -0.109375 0.031006 -0.057373 0.060547 -0.011780 -0.017456 -0.128906 0.190430 0.042725 0.055420 0.097656 0.068848 0.161133 -0.196289 -0.081543 0.002701 0.014099 -0.108398 0.241211 0.027954 0.196289 -0.049316 0.054199 -0.054199 0.102051 0.322266 -0.063477 0.146484 0.125000 0.163086 -0.026855 0.045166 0.030884 0.073730 0.052002 -0.095215 0.076172 -0.128906 0.032959 0.032227 -0.138672 0.072754 -0.066406 0.151367 -0.008362 -0.267578 0.087891 -0.071289 0.130859 0.061768 0.187500 0.039307 -0.152344 0.005524 -0.100586
out 0.110840 -0.158203 0.020752 0.166992 -0.099121 -0.154297 0.020020 -0.265625 0.036865 0.089355 -0.033691 -0.257812 0.144531 0.030762 -0.102539 -0.071777 0.094727 0.045166 0.025269 -0.133789 0.131836 0.147461 -0.024292 -0.053711 0.090820 0.071289 0.034912 -0.037842 0.116699 -0.063965 0.075684 0.207031 0.047607 0.069336 -0.126953 0.080078 -0.068359 -0.087402 -0.007050 0.164062 0.210938 -0.324219 0.034668 -0.051514 -0.165039 0.039307 -0.172852 -0.014221 0.049561 -0.000467 0.007355 0.219727 -0.117676 -0.068848 -0.292969 -0.093262 -0.032715 -0.043701 0.158203 -0.116699 0.101562 -0.061035 -0.050537 -0.131836 -0.133789 -0.100098 0.124023 0.166016 0.110840 0.107422 0.061279 -0.005615 0.223633 0.130859 -0.110352 0.033691 0.058594 0.054199 -0.099609 0.075195 -0.115234 -0.057617 0.021118 -0.047119 0.020508 -0.045898 -0.087891 0.230469 0.084961 -0.002396 -0.003204 0.113281 0.077148 -0.211914 -0.050537 -0.054932 0.169922 -0.068359 -0.124023 -0.054688 -0.183594 -0.287109 0.101562 0.221680 -0.176758 -0.055420 -0.062988 0.083008 0.163086 -0.016602 -0.082031 0.104980 -0.057861 -0.187500 0.052979 0.070312 0.094238 0.189453 0.043945 0.167969 -0.183594 0.062988 -0.084473 -0.013367 0.010376 -0.024414 -0.081055 0.024414 -0.071289 -0.091309 -0.024780 -0.164062 -0.010193 -0.050049 -0.102051 0.095703 0.075195 -0.013062 -0.024414 0.093750 0.085938 -0.056641 0.008911 0.050781 -0.036865 0.054932 -0.124023 -0.080078 -0.196289 0.218750 0.095703 0.040527 -0.163086 0.062012 0.018433 0.246094 -0.081055 -0.050293 0.066406 0.055420 -0.009399 0.014771 0.068359 -0.169922 0.114746 -0.220703 -0.020386 0.007446 0.041504 -0.187500 -0.062500 -0.000618 -0.125000 0.108887 -0.138672 0.031494 0.095215 -0.149414 -0.035156 0.051270 -0.087891 -0.052734 0.174805 0.242188 0.080566 0.032471 -0.114746 0.118652 0.043457 0.080078 -0.049072 0.085938 -0.088379 -0.124512 -0.159180 -0.037598 -0.029175 -0.137695 -0.060547 -0.122559 0.206055 -0.007233 -0.146484 -0.036865 0.127930 0.143555 -0.234375 -0.060303 -0.012390 0.077148 0.041260 0.015747 -0.177734 0.089355 0.038818 0.063477 0.044189 -0.030884 -0.195312 0.100098 0.043457 0.078125 0.030029 0.050781 0.058350 -0.098633 0.148438 0.306641 -0.066895 -0.123535 0.057861 -0.163086 0.112305 -0.097656 0.025757 0.175781 0.087891 0.065430 0.237305 0.229492 -0.091797 -0.006561 -0.067383 -0.109375 -0.114258 -0.012390 0.018066 0.108398 0.017700 0.042969 -0.066406 -0.109863 0.008362 -0.004913 0.020630 0.021362 -0.007385 -0.044189 -0.030762 -0.080566 -0.144531 0.059082 -0.232422 -0.021240 -0.036621 0.096191 0.022461 0.116699 0.011353 -0.013062 0.076660 -0.118164 0.014526 0.091309 0.208008 -0.104004 0.011047 -0.241211 0.034180 -0.039062 0.112793 -0.076660 -0.105957 0.101074 0.074219 0.152344 -0.205078 -0.000267 0.106934 -0.232422 0.001999 -0.035645 -0.212891 -0.057129 -0.194336 0.133789 0.012024 0.151367 -0.165039 0.019775
all -0.007812 -0.027954 0.040527 0.117676 -0.013306 -0.090820 0.023682 -0.024048 0.138672 0.079590 -0.146484 -0.062256 -0.032715 0.055420 -0.139648 0.078125 0.069336 0.082031 0.009460 0.000572 -0.037354 -0.096191 -0.038818 -0.040283 0.157227 0.116211 -0.109375 0.005707 0.021606 -0.101074 -0.151367 -0.049805 0.083496 0.082031 -0.005890 -0.056641 0.079102 -0.162109 -0.020508 0.159180 0.255859 -0.070312 0.087402 0.010254 -0.067383 0.010620 0.044922 -0.031982 -0.022583 -0.001457 0.062500 0.178711 -0.119629 0.052002 -0.037842 0.068848 -0.015442 -0.173828 -0.029297 -0.015869 0.016235 0.143555 0.020996 -0.127930 0.026611 -0.078613 -0.138672 0.093262 -0.052734 0.056396 0.026855 -0.040527 0.131836 -0.057373 -0.080566 0.027710 0.066895 -0.031982 0.015869 0.096191 -0.023926 -0.125000 0.017578 -0.173828 -0.157227 -0.101074 -0.100098 0.008362 -0.093262 -0.008606 0.049805 0.105469 0.014221 -0.026611 -0.095703 0.075195 0.012024 0.024414 0.056641 0.052979 -0.142578 0.012939 0.035400 -0.017334 -0.150391 0.044922 -0.111816 -0.007446 0.120605 -0.020996 -0.112793 -0.029053 -0.059570 -0.016479 0.095215 0.122559 0.049805 0.056152 -0.021729 -0.001251 -0.131836 0.121582 -0.002869 0.057861 -0.026367 -0.109375 -0.029297 -0.137695 0.037354 0.096191 -0.012939 -0.098633 -0.119141 -0.126953 -0.067383 -0.042725 0.008057 -0.038330 0.085449 -0.046143 0.014282 -0.032227 0.081543 0.014160 0.080566 0.038330 0.030884 -0.060303 -0.095703 0.055664 0.006042 0.185547 -0.200195 -0.069336 -0.147461 -0.004517 -0.008301 -0.095703 -0.003113 0.024536 -0.145508 0.068359 0.062988 0.006683 0.046875 -0.123535 -0.087891 -0.008606 0.030884 -0.024292 -0.247070 0.013489 0.109375 -0.050537 0.045654 -0.014893 -0.029297 -0.220703 -0.031250 -0.053955 -0.118652 -0.111816 0.045898 0.013245 0.045166 0.012329 -0.115723 -0.104492 0.090820 0.058350 0.068359 -0.051758 0.021851 -0.083008 0.022339 -0.110840 0.032959 0.087402 -0.155273 -0.225586 0.070312 0.104004 0.067871 -0.011108 -0.028809 0.026733 -0.125977 -0.068359 0.051514 0.144531 0.010742 0.031250 -0.062988 -0.063477 -0.011353 0.058105 0.093750 0.038330 -0.211914 -0.163086 -0.109375 -0.081543 -0.016968 -0.084961 0.054688 -0.029785 0.005463 0.041504 -0.099609 -0.060791 0.142578 0.079590 0.084961 -0.017700 0.068848 -0.009155 0.050293 0.031250 0.054932 0.081543 0.006012 0.121582 -0.050049 -0.137695 -0.025879 0.011658 -0.005402 -0.029419 -0.212891 0.103027 -0.055420 0.104492 0.035400 0.044189 0.156250 -0.165039 0.038086 -0.039551 -0.046875 -0.126953 0.103027 -0.143555 -0.137695 0.053467 0.053467 0.042725 -0.004211 0.104980 -0.165039 0.015869 0.170898 0.167969 0.154297 0.080078 0.154297 -0.069824 -0.061279 -0.105957 -0.138672 -0.087891 -0.011414 -0.043213 0.057617 0.081543 0.016968 0.110840 -0.032227 -0.052979 0.116699 0.088379 -0.079590 0.043945 -0.043457 -0.085449 -0.106934 0.044434 0.123047 0.039551 -0.060547 0.008057
two 0.031738 -0.106445 0.002411 0.052490 0.186523 -0.227539 -0.005951 -0.089355 0.076660 0.105469 -0.085449 -0.022827 -0.011230 0.189453 -0.105957 0.104004 -0.015381 0.000381 -0.183594 -0.001945 -0.122559 -0.119629 -0.164062 -0.094727 0.106934 0.111328 -0.040039 0.035400 0.007935 0.055176 -0.092285 -0.065430 0.152344 -0.057861 -0.099609 -0.011658 0.073242 -0.083984 0.039795 0.009033 0.123535 -0.061768 -0.029663 0.077637 -0.016113 0.070312 0.165039 -0.110840 -0.041260 0.078613 -0.082031 0.118164 -0.206055 -0.122070 -0.119141 0.104492 0.036377 -0.025513 0.018799 0.043945 -0.105957 0.137695 0.041748 -0.122070 -0.180664 0.051758 -0.090332 -0.024414 -0.062500 0.061523 -0.096680 0.121094 0.011841 0.089844 -0.145508 0.009094 -0.043945 0.081055 0.062500 0.052734 0.083008 -0.151367 -0.017700 -0.073730 -0.106445 -0.085449 -0.138672 -0.160156 -0.156250 -0.003265 -0.033203 0.251953 -0.154297 -0.011047 -0.144531 -0.043701 0.000427 -0.066406 -0.033203 0.119629 0.008362 -0.083008 0.153320 -0.058105 0.142578 -0.119141 0.056152 0.050537 0.083496 -0.057373 -0.106934 -0.016235 0.044922 -0.083496 0.087891 0.055420 0.122070 0.104980 0.113281 0.110840 -0.119629 -0.008606 -0.032715 -0.003525 -0.053223 -0.176758 -0.074707 -0.007629 0.154297 0.184570 0.142578 -0.094727 0.005859 -0.004730 -0.073730 -0.013428 -0.100586 -0.076660 -0.009094 0.070312 -0.025757 -0.074707 0.239258 0.113281 0.156250 0.108887 0.004028 0.096680 -0.144531 -0.083984 0.026367 0.065430 -0.147461 0.007721 -0.052734 0.121582 -0.072266 -0.086426 0.052490 0.143555 -0.234375 -0.001160 0.150391 0.023804 0.130859 0.011047 0.082031 0.047119 0.027832 -0.107422 -0.234375 -0.099609 -0.115234 -0.267578 0.076172 -0.162109 -0.111816 -0.046143 -0.045166 0.124512 -0.038330 -0.041748 0.014526 0.190430 0.081543 0.078613 0.099121 -0.023315 0.160156 -0.206055 0.088867 -0.164062 0.105957 -0.231445 -0.183594 0.002625 0.228516 0.132812 -0.116699 -0.079102 -0.063965 0.129883 0.071777 -0.018799 -0.030640 -0.193359 -0.062012 -0.100098 -0.010986 -0.054932 0.104980 -0.018188 0.002304 -0.016968 0.120117 0.051025 0.078613 -0.008606 -0.221680 0.011902 -0.051514 -0.065430 0.100586 -0.011780 0.119141 -0.163086 -0.078125 0.208008 -0.070801 0.079102 0.109863 0.046631 0.092773 0.185547 0.007660 -0.074707 -0.026733 -0.121094 -0.024780 0.015442 -0.117676 0.250000 0.107422 -0.232422 0.166992 0.029663 0.128906 -0.005096 0.147461 -0.036865 -0.047607 0.041016 -0.113770 0.039307 0.096191 0.154297 0.163086 -0.082031 -0.052490 -0.120605 0.067871 0.073242 -0.152344 0.039307 0.220703 0.064453 -0.029907 0.040771 -0.186523 0.146484 0.335938 0.062988 -0.049316 0.066406 0.225586 -0.052490 -0.245117 -0.020752 0.014282 -0.174805 0.125977 -0.072754 0.080566 0.042725 0.105957 -0.092773 -0.049561 0.132812 -0.031128 0.233398 -0.053955 0.016235 -0.129883 -0.145508 -0.099121 0.043701 -0.022095 -0.062500 -0.103027 0.029297
do 0.123047 0.012817 0.019409 0.230469 -0.173828 0.026367 0.149414 -0.049561 0.029785 -0.040283 -0.168945 -0.104492 -0.063477 0.069824 -0.204102 0.289062 0.135742 0.148438 0.104004 -0.175781 -0.170898 -0.022583 0.102051 0.048340 0.051514 -0.006500 -0.005402 0.003738 -0.062256 -0.050781 -0.040527 0.156250 0.015991 -0.188477 0.000404 0.012878 0.089355 0.078613 0.071777 0.126953 0.130859 0.069824 0.226562 -0.037109 -0.077637 -0.011719 -0.050781 -0.125000 -0.045898 -0.074707 -0.126953 0.163086 -0.015564 -0.052490 0.029785 0.028198 -0.108887 -0.047607 0.052490 -0.020386 0.102051 0.047363 -0.192383 -0.102539 0.084961 -0.092285 -0.167969 0.154297 -0.053223 -0.050781 0.198242 0.183594 0.087891 0.016724 -0.382812 -0.171875 -0.015198 0.091797 0.036377 0.112305 -0.114258 -0.030518 0.042969 0.064453 -0.105469 -0.112793 -0.063477 0.167969 0.023926 0.053955 0.055420 0.097656 -0.098145 -0.154297 0.083008 -0.228516 0.199219 0.076660 -0.016968 0.032471 -0.212891 0.001099 -0.072266 0.068848 -0.072754 -0.150391 -0.155273 -0.098633 0.092773 -0.033691 -0.180664 -0.143555 -0.098633 0.163086 0.073242 -0.040527 0.183594 -0.092773 -0.009521 -0.004456 -0.079102 0.114746 -0.064941 0.190430 -0.043457 -0.088867 -0.163086 -0.029053 -0.017212 -0.123535 -0.157227 -0.207031 -0.054932 0.027832 0.023560 -0.213867 0.085938 0.165039 0.025757 0.024170 0.036865 -0.100586 0.123535 -0.073242 0.117676 0.029541 -0.009094 -0.257812 0.043701 -0.073730 0.098633 0.162109 -0.058350 -0.013062 0.007568 0.078125 -0.061035 -0.159180 -0.067383 0.077148 0.101562 0.161133 -0.171875 0.044189 0.106934 -0.241211 0.021973 -0.118652 0.204102 -0.095215 -0.241211 -0.050781 -0.038330 -0.027344 -0.029175 0.048828 0.242188 0.065918 -0.064453 -0.004517 -0.209961 -0.017700 0.121582 0.036133 -0.011658 -0.016357 0.010864 -0.082520 0.048340 0.169922 0.060303 0.052979 0.035645 0.057373 0.075684 -0.056396 0.086426 -0.065918 -0.087891 -0.181641 0.012695 0.168945 -0.116211 0.063965 -0.141602 0.146484 -0.109863 -0.161133 -0.031128 -0.088867 -0.001877 0.197266 -0.015625 0.027100 -0.190430 -0.069336 0.180664 -0.069824 -0.109863 -0.115723 -0.070312 -0.115234 -0.188477 -0.044434 0.083008 -0.139648 0.203125 0.031494 -0.142578 0.069336 0.079590 -0.037109 -0.050537 0.104492 0.130859 -0.031128 -0.023193 -0.077637 0.161133 -0.115234 -0.075195 0.020874 0.030273 -0.131836 -0.109863 -0.021851 -0.030273 0.082520 -0.021118 -0.126953 0.053711 0.016479 0.199219 0.164062 0.064453 -0.046143 -0.044434 0.036133 -0.095703 -0.092285 -0.129883 -0.018555 -0.130859 0.072266 0.071289 0.124512 -0.024658 0.030762 -0.102539 0.049805 0.197266 0.177734 0.292969 0.221680 -0.009033 -0.069336 -0.018311 -0.176758 -0.029053 -0.202148 -0.029297 -0.102051 0.062256 0.069824 0.075684 -0.017700 0.061768 -0.116699 -0.003082 0.009766 -0.004822 0.127930 -0.099609 0.141602 -0.189453 0.027344 0.128906 -0.063477 0.021118 -0.082520
than -0.076660 -0.104004 -0.001755 0.209961 0.090820 0.019287 0.044434 -0.076660 0.148438 0.160156 -0.031250 -0.193359 0.053955 0.091309 0.139648 0.135742 -0.148438 0.053223 -0.009521 0.133789 -0.223633 -0.028931 -0.051270 -0.124512 -0.083984 0.053467 -0.222656 0.073242 0.131836 0.109863 0.080566 0.194336 -0.095703 -0.081543 0.031982 0.058350 -0.075195 0.061279 0.066895 0.189453 0.140625 -0.109375 -0.130859 0.115234 0.002548 -0.089844 -0.103516 0.232422 0.014526 -0.093750 0.104492 -0.046143 -0.015137 -0.183594 0.097656 0.104980 -0.052002 -0.118652 -0.102051 -0.180664 -0.005402 -0.036865 -0.107422 -0.151367 -0.063477 0.106934 -0.061768 0.041748 0.014771 -0.034180 0.082520 -0.003250 0.219727 0.100586 -0.083984 -0.158203 0.232422 0.092285 0.152344 -0.140625 -0.119141 -0.110352 -0.010620 0.181641 -0.347656 -0.117188 -0.024536 0.087402 0.128906 0.053711 0.138672 0.065918 -0.131836 -0.089844 -0.058350 -0.196289 0.047852 0.086426 -0.045166 0.075195 0.020020 -0.235352 0.023560 0.092773 -0.061035 -0.191406 -0.084961 -0.023804 -0.028442 -0.112793 0.225586 0.096680 0.028809 0.185547 -0.026001 0.143555 0.247070 -0.094727 0.131836 0.103027 -0.164062 0.187500 -0.103027 -0.052979 -0.093750 -0.035889 0.237305 0.051758 0.013428 0.076660 -0.004333 -0.107422 0.062988 0.031494 0.081543 -0.100098 0.035645 -0.083984 -0.122070 -0.069824 -0.064453 -0.211914 0.057617 -0.059570 0.251953 -0.137695 -0.135742 -0.097168 -0.281250 -0.063965 -0.090820 -0.197266 -0.241211 0.019531 -0.203125 -0.070801 -0.148438 0.012146 -0.072266 -0.018555 0.125977 0.207031 -0.012634 0.013977 0.020142 0.072266 0.011719 0.041504 -0.018311 0.038818 -0.203125 -0.070801 -0.098145 -0.150391 -0.192383 0.009033 -0.240234 -0.111328 0.017578 -0.131836 -0.000292 -0.151367 -0.083008 0.033447 -0.037109 -0.033691 -0.064941 0.011292 0.080566 -0.044922 0.184570 -0.174805 -0.128906 -0.128906 -0.131836 -0.031250 -0.043457 0.015503 -0.049072 -0.103516 -0.196289 0.134766 -0.165039 0.112793 0.023560 -0.101562 -0.061768 -0.173828 -0.167969 -0.000626 0.113281 0.046143 0.028320 0.188477 -0.002716 -0.040039 -0.038574 0.107910 -0.019165 0.096680 -0.042480 0.003494 0.130859 -0.058594 0.287109 -0.189453 0.028931 0.255859 0.111328 0.088379 0.021851 -0.046387 0.241211 0.105957 0.037109 0.086914 -0.209961 -0.316406 0.137695 -0.126953 -0.010132 0.041748 0.203125 -0.195312 0.108398 0.168945 0.043457 0.167969 0.064941 0.014282 0.121582 0.027222 -0.190430 0.084961 -0.021851 0.016602 0.035400 0.021484 -0.007812 0.011169 -0.059082 0.005188 -0.019531 0.023560 0.036621 -0.007874 0.035156 0.036621 -0.015625 0.081055 0.161133 -0.030762 0.158203 -0.129883 0.153320 -0.084473 -0.328125 0.163086 0.016846 -0.080078 0.041504 0.100586 -0.057373 0.054932 0.083496 0.135742 0.031738 -0.098145 0.226562 0.095215 -0.106934 0.125977 -0.063965 0.245117 -0.045898 0.104004 0.049561 -0.019653 -0.034424 0.000751
when 0.170898 0.024292 0.138672 0.022217 0.068848 -0.090820 -0.031738 -0.133789 0.178711 0.156250 0.006561 -0.251953 -0.112305 -0.015503 -0.215820 -0.113770 0.038574 0.143555 0.114258 -0.084961 -0.023682 -0.081055 0.026123 -0.001793 0.029297 0.000277 0.077148 0.166992 0.166016 0.188477 -0.064453 0.049805 -0.077637 0.100586 -0.022095 -0.105957 0.048828 -0.051514 -0.009094 0.108887 0.087891 -0.075684 0.247070 -0.108887 -0.057617 0.123047 -0.040283 -0.048096 0.084473 0.198242 -0.066895 -0.019653 -0.104980 0.017944 0.039551 0.082031 -0.034424 -0.004486 -0.040527 -0.047852 -0.085938 0.035156 -0.088867 -0.105469 -0.042969 -0.020752 0.117676 0.073242 0.050781 0.062012 0.083008 -0.052246 -0.049805 0.032959 -0.071777 0.033447 0.071777 0.216797 -0.095215 0.177734 0.019653 0.094727 0.087891 -0.037109 -0.117676 -0.142578 -0.069336 0.088379 -0.121094 0.003265 -0.048340 0.158203 -0.111328 0.000813 -0.068848 -0.135742 -0.010254 -0.019653 -0.051758 0.037598 -0.082520 -0.227539 0.020630 -0.000568 -0.129883 -0.057617 -0.044189 -0.001114 -0.014221 0.005035 0.132812 0.149414 0.001022 -0.078125 0.092773 0.029175 0.151367 0.080566 -0.022705 0.081543 -0.193359 -0.022949 -0.081055 0.012817 -0.097168 0.039307 -0.031250 0.024414 0.131836 -0.000492 -0.035156 -0.106934 -0.142578 -0.121094 -0.005249 -0.116211 0.002640 -0.058594 -0.191406 0.090332 -0.055176 -0.012817 0.064453 -0.028320 0.052734 0.029541 -0.075684 -0.108887 -0.160156 -0.008423 -0.046143 0.108398 -0.181641 0.118164 0.025146 -0.163086 -0.153320 -0.029541 0.002243 -0.014160 -0.055908 0.037842 0.010986 -0.075684 -0.057129 0.008362 -0.005676 -0.062500 -0.009949 -0.056641 -0.034424 0.059814 -0.067383 0.021606 -0.166016 0.013245 0.059814 -0.035156 0.061768 -0.061035 0.044922 -0.111816 -0.077148 0.030518 0.144531 -0.112305 -0.046387 0.035400 0.024048 0.038818 0.043945 -0.038330 0.008423 0.069824 0.040283 -0.110352 -0.046875 0.006866 -0.039795 -0.091797 0.033203 -0.200195 0.075195 -0.043213 0.125000 -0.121094 -0.037354 0.087402 0.066406 -0.163086 -0.077637 -0.068848 0.018188 0.015503 -0.198242 -0.022827 0.109375 0.064453 -0.149414 0.048096 0.002243 0.169922 0.090820 0.000713 0.072754 -0.023071 0.112793 0.060303 0.085938 -0.042236 0.053955 -0.019531 -0.068848 -0.170898 0.001442 0.048828 0.020264 -0.075684 -0.072754 0.094727 -0.123047 -0.054932 -0.026001 -0.161133 -0.093750 -0.007874 0.052734 0.012817 0.038330 0.031250 0.084961 -0.113770 0.220703 -0.053711 0.094727 -0.058105 0.116699 0.121582 -0.029663 -0.029907 -0.039307 -0.003540 -0.112793 0.062500 -0.032715 -0.007935 0.015564 0.054443 0.003372 0.108887 0.147461 0.054932 0.218750 0.115723 -0.052490 -0.109863 -0.081543 -0.163086 -0.084961 -0.116211 0.048096 -0.049316 0.012939 0.077637 0.020264 -0.021362 -0.102539 -0.146484 0.057617 0.150391 0.000431 -0.017578 -0.107910 -0.027344 -0.027954 0.030518 -0.082520 -0.050781 0.023438 -0.091309
over 0.088867 0.095703 0.014771 0.060791 -0.037598 -0.207031 0.004913 -0.324219 0.145508 0.275391 -0.176758 -0.035400 -0.012207 0.027588 0.032715 -0.061523 0.006775 0.148438 -0.076172 -0.137695 0.018677 0.064941 0.095215 -0.000736 0.048584 0.000416 -0.259766 -0.027100 0.031250 0.092773 0.077148 0.070312 -0.095703 0.068848 -0.032227 0.079590 -0.167969 -0.125977 0.104980 0.277344 0.102051 -0.192383 0.033447 -0.209961 -0.098145 -0.047363 -0.008179 -0.109375 0.151367 -0.075684 0.061035 0.204102 -0.196289 0.021118 -0.234375 0.071777 -0.072754 0.036133 0.077637 -0.141602 -0.016602 0.071777 -0.049561 -0.122070 -0.008240 0.061768 -0.051758 0.019897 0.102051 -0.073242 -0.062500 0.031250 0.190430 0.072754 -0.004364 -0.025635 0.175781 0.102539 -0.168945 0.172852 -0.031128 -0.151367 -0.035156 -0.080078 -0.131836 -0.125000 -0.053223 0.007935 -0.094727 0.161133 0.046143 0.069824 -0.156250 -0.204102 -0.099121 -0.105957 -0.102051 0.000675 -0.057129 0.158203 0.139648 -0.130859 0.089355 -0.118164 0.143555 -0.131836 -0.044434 -0.110840 0.065430 0.075195 0.069824 0.061523 0.062256 -0.104004 -0.028320 0.088867 -0.008728 0.200195 0.031250 0.063965 -0.124023 -0.070801 -0.027344 -0.095703 0.016602 0.007477 -0.155273 -0.112793 -0.013855 0.061523 0.071289 0.142578 -0.161133 -0.115234 0.001770 -0.018555 0.102051 -0.103516 0.003250 0.086426 0.020630 -0.022339 0.013306 0.025269 0.006592 0.038574 0.025024 0.083496 -0.100098 0.089355 0.126953 -0.059326 -0.143555 -0.092285 -0.152344 0.172852 0.006927 0.041748 -0.069824 0.035400 -0.255859 0.073242 0.080566 0.010742 -0.010132 0.001610 -0.058838 0.026489 -0.027832 0.050781 -0.056641 0.105469 -0.082520 -0.023560 -0.013611 -0.105957 -0.251953 0.008484 -0.016724 0.185547 -0.075684 -0.015320 0.046143 0.029785 -0.002380 0.042969 0.072266 0.098633 0.065918 0.051025 0.167969 -0.077148 -0.017700 -0.007507 -0.223633 -0.018921 0.028809 0.143555 0.003525 -0.093262 -0.055176 0.029785 0.057373 0.094727 0.047607 0.129883 0.055908 -0.061523 0.003311 0.052490 -0.000721 -0.085449 -0.047607 0.063965 0.168945 0.032471 -0.040283 -0.081055 -0.207031 0.078613 -0.055176 0.152344 -0.037598 -0.086914 0.148438 -0.129883 0.130859 -0.072266 0.125977 -0.020386 0.058838 -0.273438 0.108398 -0.001366 -0.176758 0.031982 0.147461 0.012939 0.128906 0.163086 -0.083984 0.021729 0.184570 -0.130859 -0.122559 -0.075684 -0.035400 -0.005402 0.007263 0.089355 0.020508 -0.013855 0.059082 0.012939 -0.075195 -0.014343 0.112305 0.238281 -0.106445 0.039795 -0.008179 0.177734 0.043457 -0.053467 0.028076 0.172852 -0.040527 0.085449 0.035889 -0.029297 0.134766 0.001099 0.092285 -0.084473 0.061279 -0.161133 -0.196289 -0.099609 0.049072 -0.098145 0.029419 0.142578 0.021484 0.151367 0.080078 0.174805 -0.125977 0.014038 0.018555 0.108398 -0.020508 0.109375 -0.086426 0.028931 -0.137695 -0.064941 -0.053955 -0.006378 -0.193359 -0.100586
